svm_type nu_svc
kernel_type rbf
gamma 0.0125
nr_class 2
total_sv 167
rho -0.760064
label 1 -1
nr_sv 83 84
SV
173.5967847296768 1:-0.34408599 2:0.093189999 3:0.050179198 4:-0.50896102 5:-0.34050199 6:-0.11828 7:-0.100358 8:-0.53763402 9:-0.354839 10:-0.0681004 11:-0.0143369 12:-0.48745501 13:-0.15412199 14:-0.50537598 15:0.093189999 16:-0.39784899 17:-0.34050199 18:-0.096774198 19:0.053763401 20:-0.043010801 21:-0.021505401 22:-0.354839 23:-0.37276 24:0.039426502 25:-0.22939099 26:-0.15770601 27:-0.172043 28:-0.401434 29:-0.43010801 30:-0.093189999 31:0.111111 32:-0.36559099 33:-0.25806499 34:-0.29749101 35:-0.58781397 36:0.093189999 37:-0.189964 38:-0.29749101 39:-0.394265 40:-0.16129 41:-0.376344 42:-0.62007201 43:-0.071684599 44:-0.19354799 45:-0.46595001 46:-0.27957001 47:-0.23502301 48:0.105991 49:-0.51612902 50:0.082949303 51:0.032258101 52:-0.21659 53:-0.096774198 54:0.082949303 55:-0.055299498 56:0.198157 57:0.198157 58:-0.078341 59:-0.069124401 60:-0.341014 61:-0.156682 62:-0.069124401 63:-0.0092165899 64:-0.19354799 65:0.101382 66:-0.18894 67:-0.175115 68:0.27649799 69:-0.49769601 70:-0.49769601 71:0.119816 72:0.42857099 73:-0.225806 74:0.133641 75:0.00233099 76:-0.0582751 77:0.058274999 78:-0.23076899 79:-0.43123499 80:0.411392 81:-0.056632999 82:-0.0387711 83:0.048759401 84:0.0571872 85:-0.65673101 
93.79474492775303 1:-1 2:-0.114695 3:-0.34408599 4:0.093189999 5:0.050179198 6:-0.50896102 7:-0.34050199 8:-0.11828 9:-0.100358 10:-0.53763402 11:-0.354839 12:-0.0681004 13:-0.0143369 14:-0.48745501 15:-0.15412199 16:-0.50537598 17:0.093189999 18:-0.39784899 19:-0.34050199 20:-0.096774198 21:0.053763401 22:-0.043010801 23:-0.021505401 24:-0.354839 25:-0.37276 26:0.039426502 27:-0.22939099 28:-0.15770601 29:-0.172043 30:-0.401434 31:-0.43010801 32:-0.093189999 33:0.111111 34:-0.36559099 35:-0.25806499 36:-0.29749101 37:-0.58781397 38:0.093189999 39:-0.189964 40:-0.29749101 41:-0.394265 42:-0.16129 43:-0.376344 44:-0.62007201 45:-0.071684599 46:-0.19354799 47:-0.313364 48:-0.073732696 49:-0.23502301 50:0.105991 51:-0.51612902 52:0.082949303 53:0.032258101 54:-0.21659 55:-0.096774198 56:0.082949303 57:-0.055299498 58:0.198157 59:0.198157 60:-0.078341 61:-0.069124401 62:-0.341014 63:-0.156682 64:-0.069124401 65:-0.0092165899 66:-0.19354799 67:0.101382 68:-0.18894 69:-0.175115 70:0.27649799 71:-0.49769601 72:-0.49769601 73:0.119816 74:0.42857099 75:-0.216783 76:0.146853 77:0.00233099 78:-0.0582751 79:0.058274999 80:0.044303801 81:-0.309542 82:-0.30943701 83:-0.20787001 84:-0.244204 85:-0.592471 
189.9826990495046 1:-0.48028699 2:-0.17562699 3:-1 4:-0.114695 5:-0.34408599 6:0.093189999 7:0.050179198 8:-0.50896102 9:-0.34050199 10:-0.11828 11:-0.100358 12:-0.53763402 13:-0.354839 14:-0.0681004 15:-0.0143369 16:-0.48745501 17:-0.15412199 18:-0.50537598 19:0.093189999 20:-0.39784899 21:-0.34050199 22:-0.096774198 23:0.053763401 24:-0.043010801 25:-0.021505401 26:-0.354839 27:-0.37276 28:0.039426502 29:-0.22939099 30:-0.15770601 31:-0.172043 32:-0.401434 33:-0.43010801 34:-0.093189999 35:0.111111 36:-0.36559099 37:-0.25806499 38:-0.29749101 39:-0.58781397 40:0.093189999 41:-0.189964 42:-0.29749101 43:-0.394265 44:-0.16129 45:-0.376344 46:-0.62007201 47:0.19354799 48:0.0368664 49:-0.313364 50:-0.073732696 51:-0.23502301 52:0.105991 53:-0.51612902 54:0.082949303 55:0.032258101 56:-0.21659 57:-0.096774198 58:0.082949303 59:-0.055299498 60:0.198157 61:0.198157 62:-0.078341 63:-0.069124401 64:-0.341014 65:-0.156682 66:-0.069124401 67:-0.0092165899 68:-0.19354799 69:0.101382 70:-0.18894 71:-0.175115 72:0.27649799 73:-0.49769601 74:-0.49769601 75:0.13286699 76:0.44522101 77:-0.216783 78:0.146853 79:0.00233099 80:0.27848101 81:-0.363848 82:-0.31528899 83:-0.289992 84:-0.20556401 85:-0.69855398 
22.28385402555447 1:-0.390681 2:-0.0681004 3:-0.663082 4:-0.412186 5:-0.47311801 6:-0.086021498 7:-0.48028699 8:-0.17562699 9:-1 10:-0.114695 11:-0.34408599 12:0.093189999 13:0.050179198 14:-0.50896102 15:-0.34050199 16:-0.11828 17:-0.100358 18:-0.53763402 19:-0.354839 20:-0.0681004 21:-0.0143369 22:-0.48745501 23:-0.15412199 24:-0.50537598 25:0.093189999 26:-0.39784899 27:-0.34050199 28:-0.096774198 29:0.053763401 30:-0.043010801 31:-0.021505401 32:-0.354839 33:-0.37276 34:0.039426502 35:-0.22939099 36:-0.15770601 37:-0.172043 38:-0.401434 39:-0.43010801 40:-0.093189999 41:0.111111 42:-0.36559099 43:-0.25806499 44:-0.29749101 45:-0.58781397 46:0.093189999 47:0.0414747 48:-0.096774198 49:-0.22119799 50:0.078341 51:-0.198157 52:-0.51152098 53:0.19354799 54:0.0368664 55:-0.313364 56:-0.073732696 57:-0.23502301 58:0.105991 59:-0.51612902 60:0.082949303 61:0.032258101 62:-0.21659 63:-0.096774198 64:0.082949303 65:-0.055299498 66:0.198157 67:0.198157 68:-0.078341 69:-0.069124401 70:-0.341014 71:-0.156682 72:-0.069124401 73:-0.0092165899 74:-0.19354799 75:0.114219 76:-0.179487 77:-0.165501 78:0.29137501 79:-0.49184099 80:-0.31012699 81:-0.58107001 82:-0.60058498 83:-0.57399499 84:-0.50695503 85:-0.350779 
66.83409187100403 1:-0.27957001 2:-0.27957001 3:-0.29749101 4:-0.37276 5:-0.33333299 6:-0.408602 7:-0.121864 8:-0.390681 9:-0.0681004 10:-0.663082 11:-0.412186 12:-0.47311801 13:-0.086021498 14:-0.48028699 15:-0.17562699 16:-1 17:-0.114695 18:-0.34408599 19:0.093189999 20:0.050179198 21:-0.50896102 22:-0.34050199 23:-0.11828 24:-0.100358 25:-0.53763402 26:-0.354839 27:-0.0681004 28:-0.0143369 29:-0.48745501 30:-0.15412199 31:-0.50537598 32:0.093189999 33:-0.39784899 34:-0.34050199 35:-0.096774198 36:0.053763401 37:-0.043010801 38:-0.021505401 39:-0.354839 40:-0.37276 41:0.039426502 42:-0.22939099 43:-0.15770601 44:-0.172043 45:-0.401434 46:-0.43010801 47:0.16589899 48:0.42857099 49:-0.184332 50:-0.046083 51:-0.096774198 52:-0.47004601 53:0.40553001 54:0.0414747 55:-0.096774198 56:-0.22119799 57:0.078341 58:-0.198157 59:-0.51152098 60:0.19354799 61:0.0368664 62:-0.313364 63:-0.073732696 64:-0.23502301 65:0.105991 66:-0.51612902 67:0.082949303 68:0.032258101 69:-0.21659 70:-0.096774198 71:0.082949303 72:-0.055299498 73:0.198157 74:0.198157 75:-0.067599103 76:-0.0582751 77:-0.33333299 78:-0.146853 79:-0.0582751 80:0.36075899 81:-0.68347502 82:-0.69568402 83:-0.66124898 84:-0.70015401 85:-0.68926001 
170.5664290266319 1:-0.222222 2:-0.25089601 3:-0.27957001 4:-0.27957001 5:-0.29749101 6:-0.37276 7:-0.33333299 8:-0.408602 9:-0.121864 10:-0.390681 11:-0.0681004 12:-0.663082 13:-0.412186 14:-0.47311801 15:-0.086021498 16:-0.48028699 17:-0.17562699 18:-1 19:-0.114695 20:-0.34408599 21:0.093189999 22:0.050179198 23:-0.50896102 24:-0.34050199 25:-0.11828 26:-0.100358 27:-0.53763402 28:-0.354839 29:-0.0681004 30:-0.0143369 31:-0.48745501 32:-0.15412199 33:-0.50537598 34:0.093189999 35:-0.39784899 36:-0.34050199 37:-0.096774198 38:0.053763401 39:-0.043010801 40:-0.021505401 41:-0.354839 42:-0.37276 43:0.039426502 44:-0.22939099 45:-0.15770601 46:-0.172043 47:-0.230415 48:-0.267281 49:0.16589899 50:0.42857099 51:-0.184332 52:-0.046083 53:-0.096774198 54:-0.47004601 55:0.40553001 56:0.0414747 57:-0.096774198 58:-0.22119799 59:0.078341 60:-0.198157 61:-0.51152098 62:0.19354799 63:0.0368664 64:-0.313364 65:-0.073732696 66:-0.23502301 67:0.105991 68:-0.51612902 69:0.082949303 70:0.032258101 71:-0.21659 72:-0.096774198 73:0.082949303 74:-0.055299498 75:0.21212099 76:0.21212099 77:-0.067599103 78:-0.0582751 79:-0.33333299 80:0.158228 81:-0.65864998 82:-0.67081201 83:-0.58939302 84:-0.59350801 85:-0.745588 
77.89917083124256 1:-0.33333299 2:-0.26523301 3:-0.30465999 4:-0.236559 5:-0.36200699 6:-0.45161301 7:-0.26881701 8:0.032258101 9:-0.222222 10:-0.25089601 11:-0.27957001 12:-0.27957001 13:-0.29749101 14:-0.37276 15:-0.33333299 16:-0.408602 17:-0.121864 18:-0.390681 19:-0.0681004 20:-0.663082 21:-0.412186 22:-0.47311801 23:-0.086021498 24:-0.48028699 25:-0.17562699 26:-1 27:-0.114695 28:-0.34408599 29:0.093189999 30:0.050179198 31:-0.50896102 32:-0.34050199 33:-0.11828 34:-0.100358 35:-0.53763402 36:-0.354839 37:-0.0681004 38:-0.0143369 39:-0.48745501 40:-0.15412199 41:-0.50537598 42:0.093189999 43:-0.39784899 44:-0.34050199 45:-0.096774198 46:0.053763401 47:0.230415 48:0.25806499 49:-0.170507 50:-0.19354799 51:0.33640599 52:-0.0092165899 53:0.082949303 54:0.064516097 55:-0.230415 56:-0.267281 57:0.16589899 58:0.42857099 59:-0.184332 60:-0.046083 61:-0.096774198 62:-0.47004601 63:0.40553001 64:0.0414747 65:-0.096774198 66:-0.22119799 67:0.078341 68:-0.198157 69:-0.51152098 70:0.19354799 71:0.0368664 72:-0.313364 73:-0.073732696 74:-0.23502301 75:0.118881 76:-0.51049 77:0.095571101 78:0.044289 79:-0.207459 80:0.24050599 81:-0.68813002 82:-0.701536 83:-0.64756203 84:-0.63678497 85:-0.63842499 
149.324192218282 1:-0.16129 2:-0.33333299 3:-0.26523301 4:-0.30465999 5:-0.236559 6:-0.36200699 7:-0.45161301 8:-0.26881701 9:0.032258101 10:-0.222222 11:-0.25089601 12:-0.27957001 13:-0.27957001 14:-0.29749101 15:-0.37276 16:-0.33333299 17:-0.408602 18:-0.121864 19:-0.390681 20:-0.0681004 21:-0.663082 22:-0.412186 23:-0.47311801 24:-0.086021498 25:-0.48028699 26:-0.17562699 27:-1 28:-0.114695 29:-0.34408599 30:0.093189999 31:0.050179198 32:-0.50896102 33:-0.34050199 34:-0.11828 35:-0.100358 36:-0.53763402 37:-0.354839 38:-0.0681004 39:-0.0143369 40:-0.48745501 41:-0.15412199 42:-0.50537598 43:0.093189999 44:-0.39784899 45:-0.34050199 46:-0.096774198 47:0.354839 48:0.230415 49:0.25806499 50:-0.170507 51:-0.19354799 52:0.33640599 53:-0.0092165899 54:0.082949303 55:0.064516097 56:-0.230415 57:-0.267281 58:0.16589899 59:0.42857099 60:-0.184332 61:-0.046083 62:-0.096774198 63:-0.47004601 64:0.40553001 65:0.0414747 66:-0.096774198 67:-0.22119799 68:0.078341 69:-0.198157 70:-0.51152098 71:0.19354799 72:0.0368664 73:-0.313364 74:-0.073732696 75:-0.226107 76:0.118881 77:-0.51049 78:0.095571101 79:0.044289 80:0.075949296 81:-0.643134 82:-0.702999 83:-0.632164 84:-0.64605898 85:-0.64156997 
9.111023640543914 1:-0.426523 2:-0.43010801 3:-0.050179198 4:-0.16129 5:-0.33333299 6:-0.26523301 7:-0.30465999 8:-0.236559 9:-0.36200699 10:-0.45161301 11:-0.26881701 12:0.032258101 13:-0.222222 14:-0.25089601 15:-0.27957001 16:-0.27957001 17:-0.29749101 18:-0.37276 19:-0.33333299 20:-0.408602 21:-0.121864 22:-0.390681 23:-0.0681004 24:-0.663082 25:-0.412186 26:-0.47311801 27:-0.086021498 28:-0.48028699 29:-0.17562699 30:-1 31:-0.114695 32:-0.34408599 33:0.093189999 34:0.050179198 35:-0.50896102 36:-0.34050199 37:-0.11828 38:-0.100358 39:-0.53763402 40:-0.354839 41:-0.0681004 42:-0.0143369 43:-0.48745501 44:-0.15412199 45:-0.50537598 46:0.093189999 47:-0.225806 48:-0.15207399 49:0.16129 50:0.354839 51:0.230415 52:0.25806499 53:-0.170507 54:-0.19354799 55:0.33640599 56:-0.0092165899 57:0.082949303 58:0.064516097 59:-0.230415 60:-0.267281 61:0.16589899 62:0.42857099 63:-0.184332 64:-0.046083 65:-0.096774198 66:-0.47004601 67:0.40553001 68:0.0414747 69:-0.096774198 70:-0.22119799 71:0.078341 72:-0.198157 73:-0.51152098 74:0.19354799 75:0.048951 76:-0.305361 77:-0.062937103 78:-0.226107 79:0.118881 80:-0.33544299 81:-0.69123298 82:-0.681054 83:-0.62532097 84:-0.60432798 85:-0.58341199 
104.0335047507597 1:-0.172043 2:-0.039426502 3:-0.426523 4:-0.43010801 5:-0.050179198 6:-0.16129 7:-0.33333299 8:-0.26523301 9:-0.30465999 10:-0.236559 11:-0.36200699 12:-0.45161301 13:-0.26881701 14:0.032258101 15:-0.222222 16:-0.25089601 17:-0.27957001 18:-0.27957001 19:-0.29749101 20:-0.37276 21:-0.33333299 22:-0.408602 23:-0.121864 24:-0.390681 25:-0.0681004 26:-0.663082 27:-0.412186 28:-0.47311801 29:-0.086021498 30:-0.48028699 31:-0.17562699 32:-1 33:-0.114695 34:-0.34408599 35:0.093189999 36:0.050179198 37:-0.50896102 38:-0.34050199 39:-0.11828 40:-0.100358 41:-0.53763402 42:-0.354839 43:-0.0681004 44:-0.0143369 45:-0.48745501 46:-0.15412199 47:-0.36405501 48:0.40553001 49:-0.225806 50:-0.15207399 51:0.16129 52:0.354839 53:0.230415 54:0.25806499 55:-0.170507 56:-0.19354799 57:0.33640599 58:-0.0092165899 59:0.082949303 60:0.064516097 61:-0.230415 62:-0.267281 63:0.16589899 64:0.42857099 65:-0.184332 66:-0.046083 67:-0.096774198 68:-0.47004601 69:0.40553001 70:0.0414747 71:-0.096774198 72:-0.22119799 73:0.078341 74:-0.198157 75:-0.50582802 76:0.207459 77:0.048951 78:-0.305361 79:-0.062937103 80:0.050632901 81:-0.55314201 82:-0.59327 83:-0.57570601 84:-0.53786701 85:-0.59059298 
33.83393155796294 1:-0.56989199 2:-0.22939099 3:-0.30107501 4:0.0286738 5:-0.172043 6:-0.039426502 7:-0.426523 8:-0.43010801 9:-0.050179198 10:-0.16129 11:-0.33333299 12:-0.26523301 13:-0.30465999 14:-0.236559 15:-0.36200699 16:-0.45161301 17:-0.26881701 18:0.032258101 19:-0.222222 20:-0.25089601 21:-0.27957001 22:-0.27957001 23:-0.29749101 24:-0.37276 25:-0.33333299 26:-0.408602 27:-0.121864 28:-0.390681 29:-0.0681004 30:-0.663082 31:-0.412186 32:-0.47311801 33:-0.086021498 34:-0.48028699 35:-0.17562699 36:-1 37:-0.114695 38:-0.34408599 39:0.093189999 40:0.050179198 41:-0.50896102 42:-0.34050199 43:-0.11828 44:-0.100358 45:-0.53763402 46:-0.354839 47:0.198157 48:0.267281 49:-0.341014 50:0.087557599 51:-0.36405501 52:0.40553001 53:-0.225806 54:-0.15207399 55:0.16129 56:0.354839 57:0.230415 58:0.25806499 59:-0.170507 60:-0.19354799 61:0.33640599 62:-0.0092165899 63:0.082949303 64:0.064516097 65:-0.230415 66:-0.267281 67:0.16589899 68:0.42857099 69:-0.184332 70:-0.046083 71:-0.096774198 72:-0.47004601 73:0.40553001 74:0.0414747 75:-0.086247101 76:-0.21212099 77:0.090909101 78:-0.188811 79:-0.50582802 80:0.63924098 81:-0.55779701 82:-0.45866901 83:-0.50555998 84:-0.38794401 85:-0.380445 
189.9826990495046 1:-0.30107501 2:-0.17562699 3:-0.56989199 4:-0.22939099 5:-0.30107501 6:0.0286738 7:-0.172043 8:-0.039426502 9:-0.426523 10:-0.43010801 11:-0.050179198 12:-0.16129 13:-0.33333299 14:-0.26523301 15:-0.30465999 16:-0.236559 17:-0.36200699 18:-0.45161301 19:-0.26881701 20:0.032258101 21:-0.222222 22:-0.25089601 23:-0.27957001 24:-0.27957001 25:-0.29749101 26:-0.37276 27:-0.33333299 28:-0.408602 29:-0.121864 30:-0.390681 31:-0.0681004 32:-0.663082 33:-0.412186 34:-0.47311801 35:-0.086021498 36:-0.48028699 37:-0.17562699 38:-1 39:-0.114695 40:-0.34408599 41:0.093189999 42:0.050179198 43:-0.50896102 44:-0.34050199 45:-0.11828 46:-0.100358 47:-0.40553001 48:-0.170507 49:0.198157 50:0.267281 51:-0.341014 52:0.087557599 53:-0.36405501 54:0.40553001 55:-0.225806 56:-0.15207399 57:0.16129 58:0.354839 59:0.230415 60:0.25806499 61:-0.170507 62:-0.19354799 63:0.33640599 64:-0.0092165899 65:0.082949303 66:0.064516097 67:-0.230415 68:-0.267281 69:0.16589899 70:0.42857099 71:-0.184332 72:-0.046083 73:-0.096774198 74:-0.47004601 75:0.421911 76:0.053613 77:-0.086247101 78:-0.21212099 79:0.090909101 80:0.101266 81:-0.53452301 82:-0.55084097 83:-0.43712601 84:-0.49922699 85:-0.87368602 
47.77886258372594 1:-0.34408599 2:-0.114695 3:-0.30107501 4:-0.17562699 5:-0.56989199 6:-0.22939099 7:-0.30107501 8:0.0286738 9:-0.172043 10:-0.039426502 11:-0.426523 12:-0.43010801 13:-0.050179198 14:-0.16129 15:-0.33333299 16:-0.26523301 17:-0.30465999 18:-0.236559 19:-0.36200699 20:-0.45161301 21:-0.26881701 22:0.032258101 23:-0.222222 24:-0.25089601 25:-0.27957001 26:-0.27957001 27:-0.29749101 28:-0.37276 29:-0.33333299 30:-0.408602 31:-0.121864 32:-0.390681 33:-0.0681004 34:-0.663082 35:-0.412186 36:-0.47311801 37:-0.086021498 38:-0.48028699 39:-0.17562699 40:-1 41:-0.114695 42:-0.34408599 43:0.093189999 44:0.050179198 45:-0.50896102 46:-0.34050199 47:0.133641 48:0.156682 49:-0.40553001 50:-0.170507 51:0.198157 52:0.267281 53:-0.341014 54:0.087557599 55:-0.36405501 56:0.40553001 57:-0.225806 58:-0.15207399 59:0.16129 60:0.354839 61:0.230415 62:0.25806499 63:-0.170507 64:-0.19354799 65:0.33640599 66:-0.0092165899 67:0.082949303 68:0.064516097 69:-0.230415 70:-0.267281 71:0.16589899 72:0.42857099 73:-0.184332 74:-0.046083 75:-0.086247101 76:-0.46386901 77:0.421911 78:0.053613 79:-0.086247101 80:0.0696202 81:-0.50349098 82:-0.50548702 83:-0.47134301 84:-0.46676999 85:-0.74431998 
56.36187351705811 1:-0.218638 2:-0.34408599 3:-0.114695 4:-0.30107501 5:-0.17562699 6:-0.56989199 7:-0.22939099 8:-0.30107501 9:0.0286738 10:-0.172043 11:-0.039426502 12:-0.426523 13:-0.43010801 14:-0.050179198 15:-0.16129 16:-0.33333299 17:-0.26523301 18:-0.30465999 19:-0.236559 20:-0.36200699 21:-0.45161301 22:-0.26881701 23:0.032258101 24:-0.222222 25:-0.25089601 26:-0.27957001 27:-0.27957001 28:-0.29749101 29:-0.37276 30:-0.33333299 31:-0.408602 32:-0.121864 33:-0.390681 34:-0.0681004 35:-0.663082 36:-0.412186 37:-0.47311801 38:-0.086021498 39:-0.48028699 40:-0.17562699 41:-1 42:-0.114695 43:-0.34408599 44:0.093189999 45:0.050179198 46:-0.50896102 47:-0.15207399 48:0.133641 49:0.156682 50:-0.40553001 51:-0.170507 52:0.198157 53:0.267281 54:-0.341014 55:0.087557599 56:-0.36405501 57:0.40553001 58:-0.225806 59:-0.15207399 60:0.16129 61:0.354839 62:0.230415 63:0.25806499 64:-0.170507 65:-0.19354799 66:0.33640599 67:-0.0092165899 68:0.082949303 69:0.064516097 70:-0.230415 71:-0.267281 72:0.16589899 73:0.42857099 74:-0.184332 75:-0.034965001 76:-0.086247101 77:-0.46386901 78:0.421911 79:0.053613 80:0.24050599 81:-0.48332 82:-0.49085599 83:-0.38751099 84:-0.43894899 85:-0.82111299 
130.5748507589268 1:-0.22939099 2:-0.26164901 3:-0.218638 4:-0.34408599 5:-0.114695 6:-0.30107501 7:-0.17562699 8:-0.56989199 9:-0.22939099 10:-0.30107501 11:0.0286738 12:-0.172043 13:-0.039426502 14:-0.426523 15:-0.43010801 16:-0.050179198 17:-0.16129 18:-0.33333299 19:-0.26523301 20:-0.30465999 21:-0.236559 22:-0.36200699 23:-0.45161301 24:-0.26881701 25:0.032258101 26:-0.222222 27:-0.25089601 28:-0.27957001 29:-0.27957001 30:-0.29749101 31:-0.37276 32:-0.33333299 33:-0.408602 34:-0.121864 35:-0.390681 36:-0.0681004 37:-0.663082 38:-0.412186 39:-0.47311801 40:-0.086021498 41:-0.48028699 42:-0.17562699 43:-1 44:-0.114695 45:-0.34408599 46:0.093189999 47:0.35023001 48:-0.368664 49:-0.15207399 50:0.133641 51:0.156682 52:-0.40553001 53:-0.170507 54:0.198157 55:0.267281 56:-0.341014 57:0.087557599 58:-0.36405501 59:0.40553001 60:-0.225806 61:-0.15207399 62:0.16129 63:0.354839 64:0.230415 65:0.25806499 66:-0.170507 67:-0.19354799 68:0.33640599 69:-0.0092165899 70:0.082949303 71:0.064516097 72:-0.230415 73:-0.267281 74:0.16589899 75:0.44522101 76:-0.174825 77:-0.034965001 78:-0.086247101 79:-0.46386901 80:0.93037999 81:-0.46625301 82:-0.52450597 83:-0.420017 84:-0.432767 85:-1 
23.59412201614033 1:-0.32974899 2:-0.35842299 3:-0.28673801 4:-0.207885 5:-0.22939099 6:-0.26164901 7:-0.218638 8:-0.34408599 9:-0.114695 10:-0.30107501 11:-0.17562699 12:-0.56989199 13:-0.22939099 14:-0.30107501 15:0.0286738 16:-0.172043 17:-0.039426502 18:-0.426523 19:-0.43010801 20:-0.050179198 21:-0.16129 22:-0.33333299 23:-0.26523301 24:-0.30465999 25:-0.236559 26:-0.36200699 27:-0.45161301 28:-0.26881701 29:0.032258101 30:-0.222222 31:-0.25089601 32:-0.27957001 33:-0.27957001 34:-0.29749101 35:-0.37276 36:-0.33333299 37:-0.408602 38:-0.121864 39:-0.390681 40:-0.0681004 41:-0.663082 42:-0.412186 43:-0.47311801 44:-0.086021498 45:-0.48028699 46:-0.17562699 47:-1 48:0.13824899 49:-0.156682 50:0.40553001 51:0.35023001 52:-0.368664 53:-0.15207399 54:0.133641 55:0.156682 56:-0.40553001 57:-0.170507 58:0.198157 59:0.267281 60:-0.341014 61:0.087557599 62:-0.36405501 63:0.40553001 64:-0.225806 65:-0.15207399 66:0.16129 67:0.354839 68:0.230415 69:0.25806499 70:-0.170507 71:-0.19354799 72:0.33640599 73:-0.0092165899 74:0.082949303 75:0.076923102 76:-0.22144499 77:-0.25874099 78:0.179487 79:0.44522101 80:0.120253 81:-0.51900703 82:-0.55523098 83:-0.47134301 84:-0.49613601 85:-0.956487 
152.6075099524993 1:-0.354839 2:-0.21146999 3:-0.32974899 4:-0.35842299 5:-0.28673801 6:-0.207885 7:-0.22939099 8:-0.26164901 9:-0.218638 10:-0.34408599 11:-0.114695 12:-0.30107501 13:-0.17562699 14:-0.56989199 15:-0.22939099 16:-0.30107501 17:0.0286738 18:-0.172043 19:-0.039426502 20:-0.426523 21:-0.43010801 22:-0.050179198 23:-0.16129 24:-0.33333299 25:-0.26523301 26:-0.30465999 27:-0.236559 28:-0.36200699 29:-0.45161301 30:-0.26881701 31:0.032258101 32:-0.222222 33:-0.25089601 34:-0.27957001 35:-0.27957001 36:-0.29749101 37:-0.37276 38:-0.33333299 39:-0.408602 40:-0.121864 41:-0.390681 42:-0.0681004 43:-0.663082 44:-0.412186 45:-0.47311801 46:-0.086021498 47:-0.331797 48:0.059907801 49:-1 50:0.13824899 51:-0.156682 52:0.40553001 53:0.35023001 54:-0.368664 55:-0.15207399 56:0.133641 57:0.156682 58:-0.40553001 59:-0.170507 60:0.198157 61:0.267281 62:-0.341014 63:0.087557599 64:-0.36405501 65:0.40553001 66:-0.225806 67:-0.15207399 68:0.16129 69:0.354839 70:0.230415 71:0.25806499 72:-0.170507 73:-0.19354799 74:0.33640599 75:0.00233099 76:0.095571101 77:0.076923102 78:-0.22144499 79:-0.25874099 80:0.60126603 81:-0.53452301 82:-0.5406 83:-0.47989801 84:-0.48067999 85:-0.59913599 
108.4323809053898 1:-0.15770601 2:-0.354839 3:-0.21146999 4:-0.32974899 5:-0.35842299 6:-0.28673801 7:-0.207885 8:-0.22939099 9:-0.26164901 10:-0.218638 11:-0.34408599 12:-0.114695 13:-0.30107501 14:-0.17562699 15:-0.56989199 16:-0.22939099 17:-0.30107501 18:0.0286738 19:-0.172043 20:-0.039426502 21:-0.426523 22:-0.43010801 23:-0.050179198 24:-0.16129 25:-0.33333299 26:-0.26523301 27:-0.30465999 28:-0.236559 29:-0.36200699 30:-0.45161301 31:-0.26881701 32:0.032258101 33:-0.222222 34:-0.25089601 35:-0.27957001 36:-0.27957001 37:-0.29749101 38:-0.37276 39:-0.33333299 40:-0.408602 41:-0.121864 42:-0.390681 43:-0.0681004 44:-0.663082 45:-0.412186 46:-0.47311801 47:0.175115 48:-0.331797 49:0.059907801 50:-1 51:0.13824899 52:-0.156682 53:0.40553001 54:0.35023001 55:-0.368664 56:-0.15207399 57:0.133641 58:0.156682 59:-0.40553001 60:-0.170507 61:0.198157 62:0.267281 63:-0.341014 64:0.087557599 65:-0.36405501 66:0.40553001 67:-0.225806 68:-0.15207399 69:0.16129 70:0.354839 71:0.230415 72:0.25806499 73:-0.170507 74:-0.19354799 75:0.35198101 76:0.00233099 77:0.095571101 78:0.076923102 79:-0.22144499 80:0.0063290899 81:-0.487975 82:-0.52011698 83:-0.44567999 84:-0.44976801 85:-0.57637101 
73.41491125612699 1:-0.32974899 2:-0.15770601 3:-0.15770601 4:-0.354839 5:-0.21146999 6:-0.32974899 7:-0.35842299 8:-0.28673801 9:-0.207885 10:-0.22939099 11:-0.26164901 12:-0.218638 13:-0.34408599 14:-0.114695 15:-0.30107501 16:-0.17562699 17:-0.56989199 18:-0.22939099 19:-0.30107501 20:0.0286738 21:-0.172043 22:-0.039426502 23:-0.426523 24:-0.43010801 25:-0.050179198 26:-0.16129 27:-0.33333299 28:-0.26523301 29:-0.30465999 30:-0.236559 31:-0.36200699 32:-0.45161301 33:-0.26881701 34:0.032258101 35:-0.222222 36:-0.25089601 37:-0.27957001 38:-0.27957001 39:-0.29749101 40:-0.37276 41:-0.33333299 42:-0.408602 43:-0.121864 44:-0.390681 45:-0.0681004 46:-0.663082 47:-0.24424 48:-0.32258099 49:0.175115 50:-0.331797 51:0.059907801 52:-1 53:0.13824899 54:-0.156682 55:0.40553001 56:0.35023001 57:-0.368664 58:-0.15207399 59:0.133641 60:0.156682 61:-0.40553001 62:-0.170507 63:0.198157 64:0.267281 65:-0.341014 66:0.087557599 67:-0.36405501 68:0.40553001 69:-0.225806 70:-0.15207399 71:0.16129 72:0.354839 73:0.230415 74:0.25806499 75:-0.16083901 76:-0.184149 77:0.35198101 78:0.00233099 79:0.095571101 80:0.46202499 81:-0.469356 82:-0.47768801 83:-0.36526999 84:-0.41421899 85:-0.91334999 
87.47513394693605 1:-0.32258099 2:-0.31899601 3:-0.30107501 4:-0.31899601 5:-0.182796 6:-0.32974899 7:-0.15770601 8:-0.15770601 9:-0.354839 10:-0.21146999 11:-0.32974899 12:-0.35842299 13:-0.28673801 14:-0.207885 15:-0.22939099 16:-0.26164901 17:-0.218638 18:-0.34408599 19:-0.114695 20:-0.30107501 21:-0.17562699 22:-0.56989199 23:-0.22939099 24:-0.30107501 25:0.0286738 26:-0.172043 27:-0.039426502 28:-0.426523 29:-0.43010801 30:-0.050179198 31:-0.16129 32:-0.33333299 33:-0.26523301 34:-0.30465999 35:-0.236559 36:-0.36200699 37:-0.45161301 38:-0.26881701 39:0.032258101 40:-0.222222 41:-0.25089601 42:-0.27957001 43:-0.27957001 44:-0.29749101 45:-0.37276 46:-0.33333299 47:-0.239631 48:0.129032 49:-0.21659 50:0.198157 51:-0.56682003 52:-0.24424 53:-0.32258099 54:0.175115 55:-0.331797 56:0.059907801 57:-1 58:0.13824899 59:-0.156682 60:0.40553001 61:0.35023001 62:-0.368664 63:-0.15207399 64:0.133641 65:0.156682 66:-0.40553001 67:-0.170507 68:0.198157 69:0.267281 70:-0.341014 71:0.087557599 72:-0.36405501 73:0.40553001 74:-0.225806 75:-0.14219099 76:0.174825 77:0.37062901 78:0.244755 79:0.27272701 80:0.13924 81:-0.52055901 82:-0.54937798 83:-0.454234 84:-0.48067999 85:-0.79651701 
85.34676821818866 1:-0.29390699 2:-0.24731199 3:-0.32258099 4:-0.31899601 5:-0.30107501 6:-0.31899601 7:-0.182796 8:-0.32974899 9:-0.15770601 10:-0.15770601 11:-0.354839 12:-0.21146999 13:-0.32974899 14:-0.35842299 15:-0.28673801 16:-0.207885 17:-0.22939099 18:-0.26164901 19:-0.218638 20:-0.34408599 21:-0.114695 22:-0.30107501 23:-0.17562699 24:-0.56989199 25:-0.22939099 26:-0.30107501 27:0.0286738 28:-0.172043 29:-0.039426502 30:-0.426523 31:-0.43010801 32:-0.050179198 33:-0.16129 34:-0.33333299 35:-0.26523301 36:-0.30465999 37:-0.236559 38:-0.36200699 39:-0.45161301 40:-0.26881701 41:0.032258101 42:-0.222222 43:-0.25089601 44:-0.27957001 45:-0.27957001 46:-0.29749101 47:-0.19354799 48:-0.142857 49:-0.239631 50:0.129032 51:-0.21659 52:0.198157 53:-0.56682003 54:-0.24424 55:-0.32258099 56:0.175115 57:-0.331797 58:0.059907801 59:-1 60:0.13824899 61:-0.156682 62:0.40553001 63:0.35023001 64:-0.368664 65:-0.15207399 66:0.133641 67:0.156682 68:-0.40553001 69:-0.170507 70:0.198157 71:0.267281 72:-0.341014 73:0.087557599 74:-0.36405501 75:0.421911 76:-0.216783 77:-0.14219099 78:0.174825 79:0.37062901 80:0.68987298 81:-0.525213 82:-0.57863998 83:-0.46792099 84:-0.49613601 85:-0.840922 
189.9826990495046 1:-0.19354799 2:-0.21505401 3:-0.29390699 4:-0.24731199 5:-0.32258099 6:-0.31899601 7:-0.30107501 8:-0.31899601 9:-0.182796 10:-0.32974899 11:-0.15770601 12:-0.15770601 13:-0.354839 14:-0.21146999 15:-0.32974899 16:-0.35842299 17:-0.28673801 18:-0.207885 19:-0.22939099 20:-0.26164901 21:-0.218638 22:-0.34408599 23:-0.114695 24:-0.30107501 25:-0.17562699 26:-0.56989199 27:-0.22939099 28:-0.30107501 29:0.0286738 30:-0.172043 31:-0.039426502 32:-0.426523 33:-0.43010801 34:-0.050179198 35:-0.16129 36:-0.33333299 37:-0.26523301 38:-0.30465999 39:-0.236559 40:-0.36200699 41:-0.45161301 42:-0.26881701 43:0.032258101 44:-0.222222 45:-0.25089601 46:-0.27957001 47:-0.073732696 48:-0.096774198 49:-0.19354799 50:-0.142857 51:-0.239631 52:0.129032 53:-0.21659 54:0.198157 55:-0.56682003 56:-0.24424 57:-0.32258099 58:0.175115 59:-0.331797 60:0.059907801 61:-1 62:0.13824899 63:-0.156682 64:0.40553001 65:0.35023001 66:-0.368664 67:-0.15207399 68:0.133641 69:0.156682 70:-0.40553001 71:-0.170507 72:0.198157 73:0.267281 74:-0.341014 75:0.100233 76:-0.35664299 77:0.421911 78:-0.216783 79:-0.14219099 80:0.59493703 81:-0.47245899 82:-0.51719099 83:-0.401198 84:-0.46676999 85:-0.763331 
189.9826990495046 1:-0.27957001 2:-0.22939099 3:-0.19354799 4:-0.21505401 5:-0.29390699 6:-0.24731199 7:-0.32258099 8:-0.31899601 9:-0.30107501 10:-0.31899601 11:-0.182796 12:-0.32974899 13:-0.15770601 14:-0.15770601 15:-0.354839 16:-0.21146999 17:-0.32974899 18:-0.35842299 19:-0.28673801 20:-0.207885 21:-0.22939099 22:-0.26164901 23:-0.218638 24:-0.34408599 25:-0.114695 26:-0.30107501 27:-0.17562699 28:-0.56989199 29:-0.22939099 30:-0.30107501 31:0.0286738 32:-0.172043 33:-0.039426502 34:-0.426523 35:-0.43010801 36:-0.050179198 37:-0.16129 38:-0.33333299 39:-0.26523301 40:-0.30465999 41:-0.236559 42:-0.36200699 43:-0.45161301 44:-0.26881701 45:0.032258101 46:-0.222222 47:-0.0368664 48:-0.073732696 49:-0.073732696 50:-0.096774198 51:-0.19354799 52:-0.142857 53:-0.239631 54:0.129032 55:-0.21659 56:0.198157 57:-0.56682003 58:-0.24424 59:-0.32258099 60:0.175115 61:-0.331797 62:0.059907801 63:-1 64:0.13824899 65:-0.156682 66:0.40553001 67:0.35023001 68:-0.368664 69:-0.15207399 70:0.133641 71:0.156682 72:-0.40553001 73:-0.170507 74:0.198157 75:0.282051 76:-0.33333299 77:0.100233 78:-0.35664299 79:0.421911 80:0.063291103 81:-0.46314999 82:-0.50548702 83:-0.38751099 84:-0.45285901 85:-0.74647999 
78.61161572948365 1:-0.17921101 2:-0.27957001 3:-0.22939099 4:-0.19354799 5:-0.21505401 6:-0.29390699 7:-0.24731199 8:-0.32258099 9:-0.31899601 10:-0.30107501 11:-0.31899601 12:-0.182796 13:-0.32974899 14:-0.15770601 15:-0.15770601 16:-0.354839 17:-0.21146999 18:-0.32974899 19:-0.35842299 20:-0.28673801 21:-0.207885 22:-0.22939099 23:-0.26164901 24:-0.218638 25:-0.34408599 26:-0.114695 27:-0.30107501 28:-0.17562699 29:-0.56989199 30:-0.22939099 31:-0.30107501 32:0.0286738 33:-0.172043 34:-0.039426502 35:-0.426523 36:-0.43010801 37:-0.050179198 38:-0.16129 39:-0.33333299 40:-0.26523301 41:-0.30465999 42:-0.236559 43:-0.36200699 44:-0.45161301 45:-0.26881701 46:0.032258101 47:-3.43345e-009 48:-0.0368664 49:-0.073732696 50:-0.073732696 51:-0.096774198 52:-0.19354799 53:-0.142857 54:-0.239631 55:0.129032 56:-0.21659 57:0.198157 58:-0.56682003 59:-0.24424 60:-0.32258099 61:0.175115 62:-0.331797 63:0.059907801 64:-1 65:0.13824899 66:-0.156682 67:0.40553001 68:0.35023001 69:-0.368664 70:-0.15207399 71:0.133641 72:0.156682 73:-0.40553001 74:-0.170507 75:0.21212099 76:0.282051 77:-0.33333299 78:0.100233 79:-0.35664299 80:0.93037999 81:-0.42591101 82:-0.48354101 83:-0.35500401 84:-0.43740299 85:-0.58683801 
36.94044228890488 1:-0.15770601 2:-0.17921101 3:-0.27957001 4:-0.22939099 5:-0.19354799 6:-0.21505401 7:-0.29390699 8:-0.24731199 9:-0.32258099 10:-0.31899601 11:-0.30107501 12:-0.31899601 13:-0.182796 14:-0.32974899 15:-0.15770601 16:-0.15770601 17:-0.354839 18:-0.21146999 19:-0.32974899 20:-0.35842299 21:-0.28673801 22:-0.207885 23:-0.22939099 24:-0.26164901 25:-0.218638 26:-0.34408599 27:-0.114695 28:-0.30107501 29:-0.17562699 30:-0.56989199 31:-0.22939099 32:-0.30107501 33:0.0286738 34:-0.172043 35:-0.039426502 36:-0.426523 37:-0.43010801 38:-0.050179198 39:-0.16129 40:-0.33333299 41:-0.26523301 42:-0.30465999 43:-0.236559 44:-0.36200699 45:-0.45161301 46:-0.26881701 47:0.327189 48:-3.43345e-009 49:-0.0368664 50:-0.073732696 51:-0.073732696 52:-0.096774198 53:-0.19354799 54:-0.142857 55:-0.239631 56:0.129032 57:-0.21659 58:0.198157 59:-0.56682003 60:-0.24424 61:-0.32258099 62:0.175115 63:-0.331797 64:0.059907801 65:-1 66:0.13824899 67:-0.156682 68:0.40553001 69:0.35023001 70:-0.368664 71:-0.15207399 72:0.133641 73:0.156682 74:-0.40553001 75:-0.16083901 76:0.21212099 77:0.282051 78:-0.33333299 79:0.100233 80:-0.126582 81:-0.37936401 82:-0.45866901 83:-0.38408899 84:-0.40649101 85:-0.462495 
51.98147725945584 1:-0.458781 2:-0.401434 3:-0.51612902 4:-0.0143369 5:-0.15770601 6:-0.17921101 7:-0.27957001 8:-0.22939099 9:-0.19354799 10:-0.21505401 11:-0.29390699 12:-0.24731199 13:-0.32258099 14:-0.31899601 15:-0.30107501 16:-0.31899601 17:-0.182796 18:-0.32974899 19:-0.15770601 20:-0.15770601 21:-0.354839 22:-0.21146999 23:-0.32974899 24:-0.35842299 25:-0.28673801 26:-0.207885 27:-0.22939099 28:-0.26164901 29:-0.218638 30:-0.34408599 31:-0.114695 32:-0.30107501 33:-0.17562699 34:-0.56989199 35:-0.22939099 36:-0.30107501 37:0.0286738 38:-0.172043 39:-0.039426502 40:-0.426523 41:-0.43010801 42:-0.050179198 43:-0.16129 44:-0.33333299 45:-0.26523301 46:-0.30465999 47:-0.0184332 48:-0.17972399 49:-0.29493099 50:-0.059907801 51:0.327189 52:-3.43345e-009 53:-0.0368664 54:-0.073732696 55:-0.073732696 56:-0.096774198 57:-0.19354799 58:-0.142857 59:-0.239631 60:0.129032 61:-0.21659 62:0.198157 63:-0.56682003 64:-0.24424 65:-0.32258099 66:0.175115 67:-0.331797 68:0.059907801 69:-1 70:0.13824899 71:-0.156682 72:0.40553001 73:0.35023001 74:-0.368664 75:-0.14219099 76:0.146853 77:0.17016301 78:-0.398601 79:-0.16083901 80:0.64556998 81:-0.52210999 82:-0.52011698 83:-0.44396901 84:-0.421947 85:-0.47845501 
111.257015783607 1:-0.41577101 2:-0.401434 3:-0.43727601 4:-0.22939099 5:-0.458781 6:-0.401434 7:-0.51612902 8:-0.0143369 9:-0.15770601 10:-0.17921101 11:-0.27957001 12:-0.22939099 13:-0.19354799 14:-0.21505401 15:-0.29390699 16:-0.24731199 17:-0.32258099 18:-0.31899601 19:-0.30107501 20:-0.31899601 21:-0.182796 22:-0.32974899 23:-0.15770601 24:-0.15770601 25:-0.354839 26:-0.21146999 27:-0.32974899 28:-0.35842299 29:-0.28673801 30:-0.207885 31:-0.22939099 32:-0.26164901 33:-0.218638 34:-0.34408599 35:-0.114695 36:-0.30107501 37:-0.17562699 38:-0.56989199 39:-0.22939099 40:-0.30107501 41:0.0286738 42:-0.172043 43:-0.039426502 44:-0.426523 45:-0.43010801 46:-0.050179198 47:0.078341 48:-0.142857 49:-0.055299498 50:-0.105991 51:-0.0184332 52:-0.17972399 53:-0.29493099 54:-0.059907801 55:0.327189 56:-3.43345e-009 57:-0.0368664 58:-0.073732696 59:-0.073732696 60:-0.096774198 61:-0.19354799 62:-0.142857 63:-0.239631 64:0.129032 65:-0.21659 66:0.198157 67:-0.56682003 68:-0.24424 69:-0.32258099 70:0.175115 71:-0.331797 72:0.059907801 73:-1 74:0.13824899 75:-0.146853 76:0.421911 77:0.36596701 78:-0.361305 79:-0.14219099 80:0.55696201 81:-0.70519799 82:-0.758596 83:-0.67322499 84:-0.69551802 85:-0.59345698 
189.9826990495046 1:-0.458781 2:-0.121864 3:-0.41577101 4:-0.401434 5:-0.43727601 6:-0.22939099 7:-0.458781 8:-0.401434 9:-0.51612902 10:-0.0143369 11:-0.15770601 12:-0.17921101 13:-0.27957001 14:-0.22939099 15:-0.19354799 16:-0.21505401 17:-0.29390699 18:-0.24731199 19:-0.32258099 20:-0.31899601 21:-0.30107501 22:-0.31899601 23:-0.182796 24:-0.32974899 25:-0.15770601 26:-0.15770601 27:-0.354839 28:-0.21146999 29:-0.32974899 30:-0.35842299 31:-0.28673801 32:-0.207885 33:-0.22939099 34:-0.26164901 35:-0.218638 36:-0.34408599 37:-0.114695 38:-0.30107501 39:-0.17562699 40:-0.56989199 41:-0.22939099 42:-0.30107501 43:0.0286738 44:-0.172043 45:-0.039426502 46:-0.426523 47:-0.267281 48:0.22119799 49:0.078341 50:-0.142857 51:-0.055299498 52:-0.105991 53:-0.0184332 54:-0.17972399 55:-0.29493099 56:-0.059907801 57:0.327189 58:-3.43345e-009 59:-0.0368664 60:-0.073732696 61:-0.073732696 62:-0.096774198 63:-0.19354799 64:-0.142857 65:-0.239631 66:0.129032 67:-0.21659 68:0.198157 69:-0.56682003 70:-0.24424 71:-0.32258099 72:0.175115 73:-0.331797 74:0.059907801 75:-1 76:0.15151501 77:-0.146853 78:0.421911 79:0.36596701 80:-0.132911 81:-0.72692001 82:-0.73518699 83:-0.65782702 84:-0.68624401 85:-0.469161 
171.4701446329958 1:-0.222222 2:-0.458781 3:-0.121864 4:-0.41577101 5:-0.401434 6:-0.43727601 7:-0.22939099 8:-0.458781 9:-0.401434 10:-0.51612902 11:-0.0143369 12:-0.15770601 13:-0.17921101 14:-0.27957001 15:-0.22939099 16:-0.19354799 17:-0.21505401 18:-0.29390699 19:-0.24731199 20:-0.32258099 21:-0.31899601 22:-0.30107501 23:-0.31899601 24:-0.182796 25:-0.32974899 26:-0.15770601 27:-0.15770601 28:-0.354839 29:-0.21146999 30:-0.32974899 31:-0.35842299 32:-0.28673801 33:-0.207885 34:-0.22939099 35:-0.26164901 36:-0.218638 37:-0.34408599 38:-0.114695 39:-0.30107501 40:-0.17562699 41:-0.56989199 42:-0.22939099 43:-0.30107501 44:0.0286738 45:-0.172043 46:-0.039426502 47:-0.26267299 48:-0.267281 49:0.22119799 50:0.078341 51:-0.142857 52:-0.055299498 53:-0.105991 54:-0.0184332 55:-0.17972399 56:-0.29493099 57:-0.059907801 58:0.327189 59:-3.43345e-009 60:-0.0368664 61:-0.073732696 62:-0.073732696 63:-0.096774198 64:-0.19354799 65:-0.142857 66:-0.239631 67:0.129032 68:-0.21659 69:0.198157 70:-0.56682003 71:-0.24424 72:-0.32258099 73:0.175115 74:-0.331797 75:0.072261102 76:-1 77:0.15151501 78:-0.146853 79:0.421911 80:0.85443002 81:-0.70830101 82:-0.72494501 83:-0.65953797 84:-0.67851597 85:-0.25478801 
107.4054746604329 1:-0.25089601 2:-0.222222 3:-0.458781 4:-0.121864 5:-0.41577101 6:-0.401434 7:-0.43727601 8:-0.22939099 9:-0.458781 10:-0.401434 11:-0.51612902 12:-0.0143369 13:-0.15770601 14:-0.17921101 15:-0.27957001 16:-0.22939099 17:-0.19354799 18:-0.21505401 19:-0.29390699 20:-0.24731199 21:-0.32258099 22:-0.31899601 23:-0.30107501 24:-0.31899601 25:-0.182796 26:-0.32974899 27:-0.15770601 28:-0.15770601 29:-0.354839 30:-0.21146999 31:-0.32974899 32:-0.35842299 33:-0.28673801 34:-0.207885 35:-0.22939099 36:-0.26164901 37:-0.218638 38:-0.34408599 39:-0.114695 40:-0.30107501 41:-0.17562699 42:-0.56989199 43:-0.22939099 44:-0.30107501 45:0.0286738 46:-0.172043 47:0.23502301 48:-0.26267299 49:-0.267281 50:0.22119799 51:0.078341 52:-0.142857 53:-0.055299498 54:-0.105991 55:-0.0184332 56:-0.17972399 57:-0.29493099 58:-0.059907801 59:0.327189 60:-3.43345e-009 61:-0.0368664 62:-0.073732696 63:-0.073732696 64:-0.096774198 65:-0.19354799 66:-0.142857 67:-0.239631 68:0.129032 69:-0.21659 70:0.198157 71:-0.56682003 72:-0.24424 73:-0.32258099 74:0.175115 75:-0.324009 76:0.072261102 77:-1 78:0.15151501 79:-0.146853 80:0.93037999 81:-0.70209497 82:-0.73079801 83:-0.64242899 84:-0.65842301 85:-0.73507297 
84.38169875466598 1:-0.30107501 2:-0.18638 3:-0.25089601 4:-0.222222 5:-0.458781 6:-0.121864 7:-0.41577101 8:-0.401434 9:-0.43727601 10:-0.22939099 11:-0.458781 12:-0.401434 13:-0.51612902 14:-0.0143369 15:-0.15770601 16:-0.17921101 17:-0.27957001 18:-0.22939099 19:-0.19354799 20:-0.21505401 21:-0.29390699 22:-0.24731199 23:-0.32258099 24:-0.31899601 25:-0.30107501 26:-0.31899601 27:-0.182796 28:-0.32974899 29:-0.15770601 30:-0.15770601 31:-0.354839 32:-0.21146999 33:-0.32974899 34:-0.35842299 35:-0.28673801 36:-0.207885 37:-0.22939099 38:-0.26164901 39:-0.218638 40:-0.34408599 41:-0.114695 42:-0.30107501 43:-0.17562699 44:-0.56989199 45:-0.22939099 46:-0.30107501 47:0.32258099 48:0.064516097 49:0.23502301 50:-0.26267299 51:-0.267281 52:0.22119799 53:0.078341 54:-0.142857 55:-0.055299498 56:-0.105991 57:-0.0184332 58:-0.17972399 59:-0.29493099 60:-0.059907801 61:0.327189 62:-3.43345e-009 63:-0.0368664 64:-0.073732696 65:-0.073732696 66:-0.096774198 67:-0.19354799 68:-0.142857 69:-0.239631 70:0.129032 71:-0.21659 72:0.198157 73:-0.56682003 74:-0.24424 75:-0.31468499 76:0.188811 77:-0.324009 78:0.072261102 79:-1 80:0.56329101 81:-0.68347502 82:-0.69568402 83:-0.62532097 84:-0.62287498 85:-0.85655302 
189.9826990495046 1:-0.354839 2:-0.28315401 3:-0.31182799 4:-0.30824399 5:-0.071684599 6:-0.222222 7:-0.30107501 8:-0.18638 9:-0.25089601 10:-0.222222 11:-0.458781 12:-0.121864 13:-0.41577101 14:-0.401434 15:-0.43727601 16:-0.22939099 17:-0.458781 18:-0.401434 19:-0.51612902 20:-0.0143369 21:-0.15770601 22:-0.17921101 23:-0.27957001 24:-0.22939099 25:-0.19354799 26:-0.21505401 27:-0.29390699 28:-0.24731199 29:-0.32258099 30:-0.31899601 31:-0.30107501 32:-0.31899601 33:-0.182796 34:-0.32974899 35:-0.15770601 36:-0.15770601 37:-0.354839 38:-0.21146999 39:-0.32974899 40:-0.35842299 41:-0.28673801 42:-0.207885 43:-0.22939099 44:-0.26164901 45:-0.218638 46:-0.34408599 47:0.13824899 48:-0.101382 49:0.059907801 50:-0.447005 51:-0.0092165899 52:-0.101382 53:0.32258099 54:0.064516097 55:0.23502301 56:-0.26267299 57:-0.267281 58:0.22119799 59:0.078341 60:-0.142857 61:-0.055299498 62:-0.105991 63:-0.0184332 64:-0.17972399 65:-0.29493099 66:-0.059907801 67:0.327189 68:-3.43345e-009 69:-0.0368664 70:-0.073732696 71:-0.073732696 72:-0.096774198 73:-0.19354799 74:-0.142857 75:-0.23076899 76:0.14219099 77:-0.207459 78:0.21212099 79:-0.56177199 80:0.0379747 81:-0.666408 82:-0.69568402 83:-0.60650098 84:-0.638331 85:-0.85500401 
169.1997657386452 1:-0.21146999 2:-0.354839 3:-0.28315401 4:-0.31182799 5:-0.30824399 6:-0.071684599 7:-0.222222 8:-0.30107501 9:-0.18638 10:-0.25089601 11:-0.222222 12:-0.458781 13:-0.121864 14:-0.41577101 15:-0.401434 16:-0.43727601 17:-0.22939099 18:-0.458781 19:-0.401434 20:-0.51612902 21:-0.0143369 22:-0.15770601 23:-0.17921101 24:-0.27957001 25:-0.22939099 26:-0.19354799 27:-0.21505401 28:-0.29390699 29:-0.24731199 30:-0.32258099 31:-0.31899601 32:-0.30107501 33:-0.31899601 34:-0.182796 35:-0.32974899 36:-0.15770601 37:-0.15770601 38:-0.354839 39:-0.21146999 40:-0.32974899 41:-0.35842299 42:-0.28673801 43:-0.207885 44:-0.22939099 45:-0.26164901 46:-0.218638 47:-0.156682 48:0.13824899 49:-0.101382 50:0.059907801 51:-0.447005 52:-0.0092165899 53:-0.101382 54:0.32258099 55:0.064516097 56:0.23502301 57:-0.26267299 58:-0.267281 59:0.22119799 60:0.078341 61:-0.142857 62:-0.055299498 63:-0.105991 64:-0.0184332 65:-0.17972399 66:-0.29493099 67:-0.059907801 68:0.327189 69:-3.43345e-009 70:-0.0368664 71:-0.073732696 72:-0.073732696 73:-0.096774198 74:-0.19354799 75:-0.13286699 76:-0.23076899 77:0.14219099 78:-0.207459 79:0.21212099 80:-0.405063 81:-0.643134 82:-0.702999 83:-0.60821199 84:-0.65996897 85:-0.73329002 
189.9826990495046 1:-0.22939099 2:-0.21146999 3:-0.354839 4:-0.28315401 5:-0.31182799 6:-0.30824399 7:-0.071684599 8:-0.222222 9:-0.30107501 10:-0.18638 11:-0.25089601 12:-0.222222 13:-0.458781 14:-0.121864 15:-0.41577101 16:-0.401434 17:-0.43727601 18:-0.22939099 19:-0.458781 20:-0.401434 21:-0.51612902 22:-0.0143369 23:-0.15770601 24:-0.17921101 25:-0.27957001 26:-0.22939099 27:-0.19354799 28:-0.21505401 29:-0.29390699 30:-0.24731199 31:-0.32258099 32:-0.31899601 33:-0.30107501 34:-0.31899601 35:-0.182796 36:-0.32974899 37:-0.15770601 38:-0.15770601 39:-0.354839 40:-0.21146999 41:-0.32974899 42:-0.35842299 43:-0.28673801 44:-0.207885 45:-0.22939099 46:-0.26164901 47:0.0046082898 48:-0.156682 49:0.13824899 50:-0.101382 51:0.059907801 52:-0.447005 53:-0.0092165899 54:-0.101382 55:0.32258099 56:0.064516097 57:0.23502301 58:-0.26267299 59:-0.267281 60:0.22119799 61:0.078341 62:-0.142857 63:-0.055299498 64:-0.105991 65:-0.0184332 66:-0.17972399 67:-0.29493099 68:-0.059907801 69:0.327189 70:-3.43345e-009 71:-0.0368664 72:-0.073732696 73:-0.073732696 74:-0.096774198 75:-0.184149 76:-0.13286699 77:-0.23076899 78:0.14219099 79:-0.207459 80:0.64556998 81:-0.62761801 82:-0.68397999 83:-0.58939302 84:-0.65224099 85:-0.78130901 
43.4656555039055 1:-0.22939099 2:-0.22939099 3:-0.21146999 4:-0.354839 5:-0.28315401 6:-0.31182799 7:-0.30824399 8:-0.071684599 9:-0.222222 10:-0.30107501 11:-0.18638 12:-0.25089601 13:-0.222222 14:-0.458781 15:-0.121864 16:-0.41577101 17:-0.401434 18:-0.43727601 19:-0.22939099 20:-0.458781 21:-0.401434 22:-0.51612902 23:-0.0143369 24:-0.15770601 25:-0.17921101 26:-0.27957001 27:-0.22939099 28:-0.19354799 29:-0.21505401 30:-0.29390699 31:-0.24731199 32:-0.32258099 33:-0.31899601 34:-0.30107501 35:-0.31899601 36:-0.182796 37:-0.32974899 38:-0.15770601 39:-0.15770601 40:-0.354839 41:-0.21146999 42:-0.32974899 43:-0.35842299 44:-0.28673801 45:-0.207885 46:-0.22939099 47:-0.050691199 48:0.0046082898 49:-0.156682 50:0.13824899 51:-0.101382 52:0.059907801 53:-0.447005 54:-0.0092165899 55:-0.101382 56:0.32258099 57:0.064516097 58:0.23502301 59:-0.26267299 60:-0.267281 61:0.22119799 62:0.078341 63:-0.142857 64:-0.055299498 65:-0.105991 66:-0.0184332 67:-0.17972399 68:-0.29493099 69:-0.059907801 70:0.327189 71:-3.43345e-009 72:-0.0368664 73:-0.073732696 74:-0.073732696 75:-0.086247101 76:-0.184149 77:-0.13286699 78:-0.23076899 79:0.14219099 80:0.075949296 81:-0.61210197 82:-0.66496003 83:-0.54833198 84:-0.57496101 85:-0.73455697 
189.9826990495046 1:-0.21505401 2:-0.22939099 3:-0.22939099 4:-0.21146999 5:-0.354839 6:-0.28315401 7:-0.31182799 8:-0.30824399 9:-0.071684599 10:-0.222222 11:-0.30107501 12:-0.18638 13:-0.25089601 14:-0.222222 15:-0.458781 16:-0.121864 17:-0.41577101 18:-0.401434 19:-0.43727601 20:-0.22939099 21:-0.458781 22:-0.401434 23:-0.51612902 24:-0.0143369 25:-0.15770601 26:-0.17921101 27:-0.27957001 28:-0.22939099 29:-0.19354799 30:-0.21505401 31:-0.29390699 32:-0.24731199 33:-0.32258099 34:-0.31899601 35:-0.30107501 36:-0.31899601 37:-0.182796 38:-0.32974899 39:-0.15770601 40:-0.15770601 41:-0.354839 42:-0.21146999 43:-0.32974899 44:-0.35842299 45:-0.28673801 46:-0.207885 47:-0.0092165899 48:-0.050691199 49:0.0046082898 50:-0.156682 51:0.13824899 52:-0.101382 53:0.059907801 54:-0.447005 55:-0.0092165899 56:-0.101382 57:0.32258099 58:0.064516097 59:0.23502301 60:-0.26267299 61:-0.267281 62:0.22119799 63:0.078341 64:-0.142857 65:-0.055299498 66:-0.105991 67:-0.0184332 68:-0.17972399 69:-0.29493099 70:-0.059907801 71:0.327189 72:-3.43345e-009 73:-0.0368664 74:-0.073732696 75:-0.062937103 76:-0.086247101 77:-0.184149 78:-0.13286699 79:-0.23076899 80:0.55063301 81:-0.59038001 82:-0.63716203 83:-0.53806698 84:-0.59041703 85:-0.82571298 
189.9826990495046 1:-0.28315401 2:-0.15412199 3:-0.21505401 4:-0.22939099 5:-0.22939099 6:-0.21146999 7:-0.354839 8:-0.28315401 9:-0.31182799 10:-0.30824399 11:-0.071684599 12:-0.222222 13:-0.30107501 14:-0.18638 15:-0.25089601 16:-0.222222 17:-0.458781 18:-0.121864 19:-0.41577101 20:-0.401434 21:-0.43727601 22:-0.22939099 23:-0.458781 24:-0.401434 25:-0.51612902 26:-0.0143369 27:-0.15770601 28:-0.17921101 29:-0.27957001 30:-0.22939099 31:-0.19354799 32:-0.21505401 33:-0.29390699 34:-0.24731199 35:-0.32258099 36:-0.31899601 37:-0.30107501 38:-0.31899601 39:-0.182796 40:-0.32974899 41:-0.15770601 42:-0.15770601 43:-0.354839 44:-0.21146999 45:-0.32974899 46:-0.35842299 47:-0.082949303 48:0.0184332 49:-0.0092165899 50:-0.050691199 51:0.0046082898 52:-0.156682 53:0.13824899 54:-0.101382 55:0.059907801 56:-0.447005 57:-0.0092165899 58:-0.101382 59:0.32258099 60:0.064516097 61:0.23502301 62:-0.26267299 63:-0.267281 64:0.22119799 65:0.078341 66:-0.142857 67:-0.055299498 68:-0.105991 69:-0.0184332 70:-0.17972399 71:-0.29493099 72:-0.059907801 73:0.327189 74:-3.43345e-009 75:-0.025641 76:-0.062937103 77:-0.062937103 78:-0.086247101 79:-0.184149 80:0.177215 81:-0.55003899 82:-0.59180701 83:-0.50384998 84:-0.51932001 85:-0.70709699 
189.9826990495046 1:-0.336918 2:-0.19354799 3:-0.28315401 4:-0.15412199 5:-0.21505401 6:-0.22939099 7:-0.22939099 8:-0.21146999 9:-0.354839 10:-0.28315401 11:-0.31182799 12:-0.30824399 13:-0.071684599 14:-0.222222 15:-0.30107501 16:-0.18638 17:-0.25089601 18:-0.222222 19:-0.458781 20:-0.121864 21:-0.41577101 22:-0.401434 23:-0.43727601 24:-0.22939099 25:-0.458781 26:-0.401434 27:-0.51612902 28:-0.0143369 29:-0.15770601 30:-0.17921101 31:-0.27957001 32:-0.22939099 33:-0.19354799 34:-0.21505401 35:-0.29390699 36:-0.24731199 37:-0.32258099 38:-0.31899601 39:-0.30107501 40:-0.31899601 41:-0.182796 42:-0.32974899 43:-0.15770601 44:-0.15770601 45:-0.354839 46:-0.21146999 47:-0.13824899 48:-0.175115 49:-0.082949303 50:0.0184332 51:-0.0092165899 52:-0.050691199 53:0.0046082898 54:-0.156682 55:0.13824899 56:-0.101382 57:0.059907801 58:-0.447005 59:-0.0092165899 60:-0.101382 61:0.32258099 62:0.064516097 63:0.23502301 64:-0.26267299 65:-0.267281 66:0.22119799 67:0.078341 68:-0.142857 69:-0.055299498 70:-0.105991 71:-0.0184332 72:-0.17972399 73:-0.29493099 74:-0.059907801 75:0.342657 76:0.011655 77:-0.025641 78:-0.062937103 79:-0.062937103 80:0.24050599 81:-0.55003899 82:-0.58010298 83:-0.48503 84:-0.49922699 85:-0.83979499 
189.9826990495046 1:-0.18638 2:-0.336918 3:-0.19354799 4:-0.28315401 5:-0.15412199 6:-0.21505401 7:-0.22939099 8:-0.22939099 9:-0.21146999 10:-0.354839 11:-0.28315401 12:-0.31182799 13:-0.30824399 14:-0.071684599 15:-0.222222 16:-0.30107501 17:-0.18638 18:-0.25089601 19:-0.222222 20:-0.458781 21:-0.121864 22:-0.41577101 23:-0.401434 24:-0.43727601 25:-0.22939099 26:-0.458781 27:-0.401434 28:-0.51612902 29:-0.0143369 30:-0.15770601 31:-0.17921101 32:-0.27957001 33:-0.22939099 34:-0.19354799 35:-0.21505401 36:-0.29390699 37:-0.24731199 38:-0.32258099 39:-0.31899601 40:-0.30107501 41:-0.31899601 42:-0.182796 43:-0.32974899 44:-0.15770601 45:-0.15770601 46:-0.354839 47:0.0138249 48:-0.13824899 49:-0.175115 50:-0.082949303 51:0.0184332 52:-0.0092165899 53:-0.050691199 54:0.0046082898 55:-0.156682 56:0.13824899 57:-0.101382 58:0.059907801 59:-0.447005 60:-0.0092165899 61:-0.101382 62:0.32258099 63:0.064516097 64:0.23502301 65:-0.26267299 66:-0.267281 67:0.22119799 68:0.078341 69:-0.142857 70:-0.055299498 71:-0.105991 72:-0.0184332 73:-0.17972399 74:-0.29493099 75:-0.048951101 76:0.342657 77:0.011655 78:-0.025641 79:-0.062937103 80:0.27215201 81:-0.51590401 82:-0.58595502 83:-0.481608 84:-0.51468301 85:-0.69029301 
189.9826990495046 1:-0.31899601 2:-0.36200699 3:-0.21505401 4:-0.18638 5:-0.336918 6:-0.19354799 7:-0.28315401 8:-0.15412199 9:-0.21505401 10:-0.22939099 11:-0.22939099 12:-0.21146999 13:-0.354839 14:-0.28315401 15:-0.31182799 16:-0.30824399 17:-0.071684599 18:-0.222222 19:-0.30107501 20:-0.18638 21:-0.25089601 22:-0.222222 23:-0.458781 24:-0.121864 25:-0.41577101 26:-0.401434 27:-0.43727601 28:-0.22939099 29:-0.458781 30:-0.401434 31:-0.51612902 32:-0.0143369 33:-0.15770601 34:-0.17921101 35:-0.27957001 36:-0.22939099 37:-0.19354799 38:-0.21505401 39:-0.29390699 40:-0.24731199 41:-0.32258099 42:-0.31899601 43:-0.30107501 44:-0.31899601 45:-0.182796 46:-0.32974899 47:0.082949303 48:0.082949303 49:-0.170507 50:0.0138249 51:-0.13824899 52:-0.175115 53:-0.082949303 54:0.0184332 55:-0.0092165899 56:-0.050691199 57:0.0046082898 58:-0.156682 59:0.13824899 60:-0.101382 61:0.059907801 62:-0.447005 63:-0.0092165899 64:-0.101382 65:0.32258099 66:0.064516097 67:0.23502301 68:-0.26267299 69:-0.267281 70:0.22119799 71:0.078341 72:-0.142857 73:-0.055299498 74:-0.105991 75:-0.00699302 76:-0.17016301 77:-0.286713 78:-0.048951101 79:0.342657 80:0.373418 81:-0.55934799 82:-0.594733 83:-0.48503 84:-0.52859402 85:-0.49432001 
189.9826990495046 1:-0.32616499 2:-0.387097 3:-0.31899601 4:-0.225806 5:-0.31899601 6:-0.36200699 7:-0.21505401 8:-0.18638 9:-0.336918 10:-0.19354799 11:-0.28315401 12:-0.15412199 13:-0.21505401 14:-0.22939099 15:-0.22939099 16:-0.21146999 17:-0.354839 18:-0.28315401 19:-0.31182799 20:-0.30824399 21:-0.071684599 22:-0.222222 23:-0.30107501 24:-0.18638 25:-0.25089601 26:-0.222222 27:-0.458781 28:-0.121864 29:-0.41577101 30:-0.401434 31:-0.43727601 32:-0.22939099 33:-0.458781 34:-0.401434 35:-0.51612902 36:-0.0143369 37:-0.15770601 38:-0.17921101 39:-0.27957001 40:-0.22939099 41:-0.19354799 42:-0.21505401 43:-0.29390699 44:-0.24731199 45:-0.32258099 46:-0.31899601 47:-0.101382 48:-0.124424 49:0.050691199 50:-0.13824899 51:0.082949303 52:0.082949303 53:-0.170507 54:0.0138249 55:-0.13824899 56:-0.175115 57:-0.082949303 58:0.0184332 59:-0.0092165899 60:-0.050691199 61:0.0046082898 62:-0.156682 63:0.13824899 64:-0.101382 65:0.059907801 66:-0.447005 67:-0.0092165899 68:-0.101382 69:0.32258099 70:0.064516097 71:0.23502301 72:-0.26267299 73:-0.267281 74:0.22119799 75:0.090909101 76:-0.13286699 77:-0.044289101 78:-0.095571101 79:-0.00699302 80:0.126582 81:-0.64468598 82:-0.69568402 83:-0.58425999 84:-0.638331 85:-0.574305 
30.60678004283227 1:-0.30107501 2:-0.26164901 3:-0.32616499 4:-0.387097 5:-0.31899601 6:-0.225806 7:-0.31899601 8:-0.36200699 9:-0.21505401 10:-0.18638 11:-0.336918 12:-0.19354799 13:-0.28315401 14:-0.15412199 15:-0.21505401 16:-0.22939099 17:-0.22939099 18:-0.21146999 19:-0.354839 20:-0.28315401 21:-0.31182799 22:-0.30824399 23:-0.071684599 24:-0.222222 25:-0.30107501 26:-0.18638 27:-0.25089601 28:-0.222222 29:-0.458781 30:-0.121864 31:-0.41577101 32:-0.401434 33:-0.43727601 34:-0.22939099 35:-0.458781 36:-0.401434 37:-0.51612902 38:-0.0143369 39:-0.15770601 40:-0.17921101 41:-0.27957001 42:-0.22939099 43:-0.19354799 44:-0.21505401 45:-0.29390699 46:-0.24731199 47:-0.129032 48:-0.124424 49:-0.101382 50:-0.124424 51:0.050691199 52:-0.13824899 53:0.082949303 54:0.082949303 55:-0.170507 56:0.0138249 57:-0.13824899 58:-0.175115 59:-0.082949303 60:0.0184332 61:-0.0092165899 62:-0.050691199 63:0.0046082898 64:-0.156682 65:0.13824899 66:-0.101382 67:0.059907801 68:-0.447005 69:-0.0092165899 70:-0.101382 71:0.32258099 72:0.064516097 73:0.23502301 74:-0.26267299 75:-0.25874099 76:0.235431 77:0.090909101 78:-0.13286699 79:-0.044289101 80:0.22784799 81:-0.65864998 82:-0.70738798 83:-0.60821199 84:-0.62132901 85:-0.77304697 
189.9826990495046 1:-0.458781 2:-0.121864 3:-0.30107501 4:-0.26164901 5:-0.32616499 6:-0.387097 7:-0.31899601 8:-0.225806 9:-0.31899601 10:-0.36200699 11:-0.21505401 12:-0.18638 13:-0.336918 14:-0.19354799 15:-0.28315401 16:-0.15412199 17:-0.21505401 18:-0.22939099 19:-0.22939099 20:-0.21146999 21:-0.354839 22:-0.28315401 23:-0.31182799 24:-0.30824399 25:-0.071684599 26:-0.222222 27:-0.30107501 28:-0.18638 29:-0.25089601 30:-0.222222 31:-0.458781 32:-0.121864 33:-0.41577101 34:-0.401434 35:-0.43727601 36:-0.22939099 37:-0.458781 38:-0.401434 39:-0.51612902 40:-0.0143369 41:-0.15770601 42:-0.17921101 43:-0.27957001 44:-0.22939099 45:-0.19354799 46:-0.21505401 47:-0.092165902 48:-0.032258101 49:-0.129032 50:-0.124424 51:-0.101382 52:-0.124424 53:0.050691199 54:-0.13824899 55:0.082949303 56:0.082949303 57:-0.170507 58:0.0138249 59:-0.13824899 60:-0.175115 61:-0.082949303 62:0.0184332 63:-0.0092165899 64:-0.050691199 65:0.0046082898 66:-0.156682 67:0.13824899 68:-0.101382 69:0.059907801 70:-0.447005 71:-0.0092165899 72:-0.101382 73:0.32258099 74:0.064516097 75:0.24941701 76:-0.25407901 77:-0.25874099 78:0.235431 79:0.090909101 80:0.177215 81:-0.680372 82:-0.66934901 83:-0.60479099 84:-0.59041703 85:-0.607867 
189.9826990495046 1:-0.143369 2:-0.458781 3:-0.121864 4:-0.30107501 5:-0.26164901 6:-0.32616499 7:-0.387097 8:-0.31899601 9:-0.225806 10:-0.31899601 11:-0.36200699 12:-0.21505401 13:-0.18638 14:-0.336918 15:-0.19354799 16:-0.28315401 17:-0.15412199 18:-0.21505401 19:-0.22939099 20:-0.22939099 21:-0.21146999 22:-0.354839 23:-0.28315401 24:-0.31182799 25:-0.30824399 26:-0.071684599 27:-0.222222 28:-0.30107501 29:-0.18638 30:-0.25089601 31:-0.222222 32:-0.458781 33:-0.121864 34:-0.41577101 35:-0.401434 36:-0.43727601 37:-0.22939099 38:-0.458781 39:-0.401434 40:-0.51612902 41:-0.0143369 42:-0.15770601 43:-0.17921101 44:-0.27957001 45:-0.22939099 46:-0.19354799 47:0.0092165899 48:-0.092165902 49:-0.032258101 50:-0.129032 51:-0.124424 52:-0.101382 53:-0.124424 54:0.050691199 55:-0.13824899 56:0.082949303 57:0.082949303 58:-0.170507 59:0.0138249 60:-0.13824899 61:-0.175115 62:-0.082949303 63:0.0184332 64:-0.0092165899 65:-0.050691199 66:0.0046082898 67:-0.156682 68:0.13824899 69:-0.101382 70:0.059907801 71:-0.447005 72:-0.0092165899 73:-0.101382 74:0.32258099 75:0.076923102 76:0.24941701 77:-0.25407901 78:-0.25874099 79:0.235431 80:0.481013 81:-0.62761801 82:-0.68836898 83:-0.652695 84:-0.69242698 85:-0.60688102 
189.9826990495046 1:-0.27598599 2:-0.26523301 3:-0.26523301 4:-0.103943 5:-0.143369 6:-0.458781 7:-0.121864 8:-0.30107501 9:-0.26164901 10:-0.32616499 11:-0.387097 12:-0.31899601 13:-0.225806 14:-0.31899601 15:-0.36200699 16:-0.21505401 17:-0.18638 18:-0.336918 19:-0.19354799 20:-0.28315401 21:-0.15412199 22:-0.21505401 23:-0.22939099 24:-0.22939099 25:-0.21146999 26:-0.354839 27:-0.28315401 28:-0.31182799 29:-0.30824399 30:-0.071684599 31:-0.222222 32:-0.30107501 33:-0.18638 34:-0.25089601 35:-0.222222 36:-0.458781 37:-0.121864 38:-0.41577101 39:-0.401434 40:-0.43727601 41:-0.22939099 42:-0.458781 43:-0.401434 44:-0.51612902 45:-0.0143369 46:-0.15770601 47:0.055299498 48:-0.073732696 49:-0.0092165899 50:0.0368664 51:0.0092165899 52:-0.092165902 53:-0.032258101 54:-0.129032 55:-0.124424 56:-0.101382 57:-0.124424 58:0.050691199 59:-0.13824899 60:0.082949303 61:0.082949303 62:-0.170507 63:0.0138249 64:-0.13824899 65:-0.175115 66:-0.082949303 67:0.0184332 68:-0.0092165899 69:-0.050691199 70:0.0046082898 71:-0.156682 72:0.13824899 73:-0.101382 74:0.059907801 75:-0.440559 76:0.00233099 77:-0.090909101 78:0.33799499 79:0.076923102 80:0.69620299 81:-0.562451 82:-0.60351098 83:-0.51753598 84:-0.51004601 85:-0.76736802 
56.8148885272625 1:-0.29390699 2:-0.25448 3:-0.27598599 4:-0.26523301 5:-0.26523301 6:-0.103943 7:-0.143369 8:-0.458781 9:-0.121864 10:-0.30107501 11:-0.26164901 12:-0.32616499 13:-0.387097 14:-0.31899601 15:-0.225806 16:-0.31899601 17:-0.36200699 18:-0.21505401 19:-0.18638 20:-0.336918 21:-0.19354799 22:-0.28315401 23:-0.15412199 24:-0.21505401 25:-0.22939099 26:-0.22939099 27:-0.21146999 28:-0.354839 29:-0.28315401 30:-0.31182799 31:-0.30824399 32:-0.071684599 33:-0.222222 34:-0.30107501 35:-0.18638 36:-0.25089601 37:-0.222222 38:-0.458781 39:-0.121864 40:-0.41577101 41:-0.401434 42:-0.43727601 43:-0.22939099 44:-0.458781 45:-0.401434 46:-0.51612902 47:0.267281 48:0.082949303 49:0.055299498 50:-0.073732696 51:-0.0092165899 52:0.0368664 53:0.0092165899 54:-0.092165902 55:-0.032258101 56:-0.129032 57:-0.124424 58:-0.101382 59:-0.124424 60:0.050691199 61:-0.13824899 62:0.082949303 63:0.082949303 64:-0.170507 65:0.0138249 66:-0.13824899 67:-0.175115 68:-0.082949303 69:0.0184332 70:-0.0092165899 71:-0.050691199 72:0.0046082898 73:-0.156682 74:0.13824899 75:-0.090909101 76:0.072261102 77:-0.440559 78:0.00233099 79:-0.090909101 80:0.81645602 81:-0.57020903 82:-0.62399399 83:-0.52780199 84:-0.55950499 85:-0.62307501 
189.9826990495046 1:-0.35125399 2:-0.23297501 3:-0.164875 4:-0.29390699 5:-0.25448 6:-0.27598599 7:-0.26523301 8:-0.26523301 9:-0.103943 10:-0.143369 11:-0.458781 12:-0.121864 13:-0.30107501 14:-0.26164901 15:-0.32616499 16:-0.387097 17:-0.31899601 18:-0.225806 19:-0.31899601 20:-0.36200699 21:-0.21505401 22:-0.18638 23:-0.336918 24:-0.19354799 25:-0.28315401 26:-0.15412199 27:-0.21505401 28:-0.22939099 29:-0.22939099 30:-0.21146999 31:-0.354839 32:-0.28315401 33:-0.31182799 34:-0.30824399 35:-0.071684599 36:-0.222222 37:-0.30107501 38:-0.18638 39:-0.25089601 40:-0.222222 41:-0.458781 42:-0.121864 43:-0.41577101 44:-0.401434 45:-0.43727601 46:-0.22939099 47:-0.30414701 48:-0.230415 49:-0.37788001 50:0.267281 51:0.082949303 52:0.055299498 53:-0.073732696 54:-0.0092165899 55:0.0368664 56:0.0092165899 57:-0.092165902 58:-0.032258101 59:-0.129032 60:-0.124424 61:-0.101382 62:-0.124424 63:0.050691199 64:-0.13824899 65:0.082949303 66:0.082949303 67:-0.170507 68:0.0138249 69:-0.13824899 70:-0.175115 71:-0.082949303 72:0.0184332 73:-0.0092165899 74:-0.050691199 75:0.016317001 76:-0.146853 77:0.15151501 78:-0.090909101 79:0.072261102 80:-0.24050599 81:-0.55003899 82:-0.59912199 83:-0.51411498 84:-0.55950499 85:-0.75187802 
189.9826990495046 1:-0.53404999 2:-0.43010801 3:-0.387097 4:-0.37992799 5:-0.236559 6:-0.376344 7:-0.48028699 8:-0.24731199 9:-0.35125399 10:-0.23297501 11:-0.164875 12:-0.29390699 13:-0.25448 14:-0.27598599 15:-0.26523301 16:-0.26523301 17:-0.103943 18:-0.143369 19:-0.458781 20:-0.121864 21:-0.30107501 22:-0.26164901 23:-0.32616499 24:-0.387097 25:-0.31899601 26:-0.225806 27:-0.31899601 28:-0.36200699 29:-0.21505401 30:-0.18638 31:-0.336918 32:-0.19354799 33:-0.28315401 34:-0.15412199 35:-0.21505401 36:-0.22939099 37:-0.22939099 38:-0.21146999 39:-0.354839 40:-0.28315401 41:-0.31182799 42:-0.30824399 43:-0.071684599 44:-0.222222 45:-0.30107501 46:-0.18638 47:-0.0368664 48:-3.43345e-009 49:-0.30414701 50:0.129032 51:-0.24884801 52:-0.230415 53:-0.27649799 54:-0.0092165899 55:-0.30414701 56:-0.230415 57:-0.37788001 58:0.267281 59:0.082949303 60:0.055299498 61:-0.073732696 62:-0.0092165899 63:0.0368664 64:0.0092165899 65:-0.092165902 66:-0.032258101 67:-0.129032 68:-0.124424 69:-0.101382 70:-0.124424 71:0.050691199 72:-0.13824899 73:0.082949303 74:0.082949303 75:-0.16083901 76:0.025641 77:-0.128205 78:-0.165501 79:-0.072261102 80:0.398734 81:-0.96121001 82:-0.85223103 83:-0.943542 84:-0.79598099 85:-0.57688701 
29.83506919058095 1:-0.336918 2:-0.408602 3:-0.13978501 4:-0.53404999 5:-0.43010801 6:-0.387097 7:-0.37992799 8:-0.236559 9:-0.376344 10:-0.48028699 11:-0.24731199 12:-0.35125399 13:-0.23297501 14:-0.164875 15:-0.29390699 16:-0.25448 17:-0.27598599 18:-0.26523301 19:-0.26523301 20:-0.103943 21:-0.143369 22:-0.458781 23:-0.121864 24:-0.30107501 25:-0.26164901 26:-0.32616499 27:-0.387097 28:-0.31899601 29:-0.225806 30:-0.31899601 31:-0.36200699 32:-0.21505401 33:-0.18638 34:-0.336918 35:-0.19354799 36:-0.28315401 37:-0.15412199 38:-0.21505401 39:-0.22939099 40:-0.22939099 41:-0.21146999 42:-0.354839 43:-0.28315401 44:-0.31182799 45:-0.30824399 46:-0.071684599 47:-3.43345e-009 48:-0.101382 49:0.046082899 50:-0.0368664 51:-3.43345e-009 52:-0.30414701 53:0.129032 54:-0.24884801 55:-0.230415 56:-0.27649799 57:-0.0092165899 58:-0.30414701 59:-0.230415 60:-0.37788001 61:0.267281 62:0.082949303 63:0.055299498 64:-0.073732696 65:-0.0092165899 66:0.0368664 67:0.0092165899 68:-0.092165902 69:-0.032258101 70:-0.129032 71:-0.124424 72:-0.101382 73:-0.124424 74:0.050691199 75:-0.128205 76:0.095571101 77:0.095571101 78:-0.16083901 79:0.025641 80:0.183544 81:-1 82:-1 83:-1 84:-1 85:-0.52534699 
47.11280124379499 1:0.132616 2:-0.336918 3:-0.408602 4:-0.13978501 5:-0.53404999 6:-0.43010801 7:-0.387097 8:-0.37992799 9:-0.236559 10:-0.376344 11:-0.48028699 12:-0.24731199 13:-0.35125399 14:-0.23297501 15:-0.164875 16:-0.29390699 17:-0.25448 18:-0.27598599 19:-0.26523301 20:-0.26523301 21:-0.103943 22:-0.143369 23:-0.458781 24:-0.121864 25:-0.30107501 26:-0.26164901 27:-0.32616499 28:-0.387097 29:-0.31899601 30:-0.225806 31:-0.31899601 32:-0.36200699 33:-0.21505401 34:-0.18638 35:-0.336918 36:-0.19354799 37:-0.28315401 38:-0.15412199 39:-0.21505401 40:-0.22939099 41:-0.22939099 42:-0.21146999 43:-0.354839 44:-0.28315401 45:-0.31182799 46:-0.30824399 47:0.19354799 48:-3.43345e-009 49:-0.101382 50:0.046082899 51:-0.0368664 52:-3.43345e-009 53:-0.30414701 54:0.129032 55:-0.24884801 56:-0.230415 57:-0.27649799 58:-0.0092165899 59:-0.30414701 60:-0.230415 61:-0.37788001 62:0.267281 63:0.082949303 64:0.055299498 65:-0.073732696 66:-0.0092165899 67:0.0368664 68:0.0092165899 69:-0.092165902 70:-0.032258101 71:-0.129032 72:-0.124424 73:-0.101382 74:-0.124424 75:0.062937103 76:-0.128205 77:0.095571101 78:0.095571101 79:-0.16083901 80:0.392405 81:-0.82777297 82:-0.83467501 83:-0.91616797 84:-0.94744998 85:-0.44554999 
189.9826990495046 1:-0.197133 2:0.132616 3:-0.336918 4:-0.408602 5:-0.13978501 6:-0.53404999 7:-0.43010801 8:-0.387097 9:-0.37992799 10:-0.236559 11:-0.376344 12:-0.48028699 13:-0.24731199 14:-0.35125399 15:-0.23297501 16:-0.164875 17:-0.29390699 18:-0.25448 19:-0.27598599 20:-0.26523301 21:-0.26523301 22:-0.103943 23:-0.143369 24:-0.458781 25:-0.121864 26:-0.30107501 27:-0.26164901 28:-0.32616499 29:-0.387097 30:-0.31899601 31:-0.225806 32:-0.31899601 33:-0.36200699 34:-0.21505401 35:-0.18638 36:-0.336918 37:-0.19354799 38:-0.28315401 39:-0.15412199 40:-0.21505401 41:-0.22939099 42:-0.22939099 43:-0.21146999 44:-0.354839 45:-0.28315401 46:-0.31182799 47:-0.110599 48:0.19354799 49:-3.43345e-009 50:-0.101382 51:0.046082899 52:-0.0368664 53:-3.43345e-009 54:-0.30414701 55:0.129032 56:-0.24884801 57:-0.230415 58:-0.27649799 59:-0.0092165899 60:-0.30414701 61:-0.230415 62:-0.37788001 63:0.267281 64:0.082949303 65:0.055299498 66:-0.073732696 67:-0.0092165899 68:0.0368664 69:0.0092165899 70:-0.092165902 71:-0.032258101 72:-0.129032 73:-0.124424 74:-0.101382 75:-0.114219 76:0.062937103 77:-0.128205 78:0.095571101 79:0.095571101 80:0.13924 81:-0.79829299 82:-0.83028501 83:-0.79982901 84:-0.80680102 85:-0.458693 
189.9826990495046 1:-0.200717 2:-0.197133 3:0.132616 4:-0.336918 5:-0.408602 6:-0.13978501 7:-0.53404999 8:-0.43010801 9:-0.387097 10:-0.37992799 11:-0.236559 12:-0.376344 13:-0.48028699 14:-0.24731199 15:-0.35125399 16:-0.23297501 17:-0.164875 18:-0.29390699 19:-0.25448 20:-0.27598599 21:-0.26523301 22:-0.26523301 23:-0.103943 24:-0.143369 25:-0.458781 26:-0.121864 27:-0.30107501 28:-0.26164901 29:-0.32616499 30:-0.387097 31:-0.31899601 32:-0.225806 33:-0.31899601 34:-0.36200699 35:-0.21505401 36:-0.18638 37:-0.336918 38:-0.19354799 39:-0.28315401 40:-0.15412199 41:-0.21505401 42:-0.22939099 43:-0.22939099 44:-0.21146999 45:-0.354839 46:-0.28315401 47:-0.115207 48:-0.110599 49:0.19354799 50:-3.43345e-009 51:-0.101382 52:0.046082899 53:-0.0368664 54:-3.43345e-009 55:-0.30414701 56:0.129032 57:-0.24884801 58:-0.230415 59:-0.27649799 60:-0.0092165899 61:-0.30414701 62:-0.230415 63:-0.37788001 64:0.267281 65:0.082949303 66:0.055299498 67:-0.073732696 68:-0.0092165899 69:0.0368664 70:0.0092165899 71:-0.092165902 72:-0.032258101 73:-0.129032 74:-0.124424 75:-0.090909101 76:-0.114219 77:0.062937103 78:-0.128205 79:0.095571101 80:0.487342 81:-0.77036399 82:-0.81711799 83:-0.80154002 84:-0.74961299 85:-0.65119201 
101.0673220455033 1:-0.222222 2:0.0179212 3:-0.200717 4:-0.197133 5:0.132616 6:-0.336918 7:-0.408602 8:-0.13978501 9:-0.53404999 10:-0.43010801 11:-0.387097 12:-0.37992799 13:-0.236559 14:-0.376344 15:-0.48028699 16:-0.24731199 17:-0.35125399 18:-0.23297501 19:-0.164875 20:-0.29390699 21:-0.25448 22:-0.27598599 23:-0.26523301 24:-0.26523301 25:-0.103943 26:-0.143369 27:-0.458781 28:-0.121864 29:-0.30107501 30:-0.26164901 31:-0.32616499 32:-0.387097 33:-0.31899601 34:-0.225806 35:-0.31899601 36:-0.36200699 37:-0.21505401 38:-0.18638 39:-0.336918 40:-0.19354799 41:-0.28315401 42:-0.15412199 43:-0.21505401 44:-0.22939099 45:-0.22939099 46:-0.21146999 47:-0.170507 48:-0.078341 49:-0.115207 50:-0.110599 51:0.19354799 52:-3.43345e-009 53:-0.101382 54:0.046082899 55:-0.0368664 56:-3.43345e-009 57:-0.30414701 58:0.129032 59:-0.24884801 60:-0.230415 61:-0.27649799 62:-0.0092165899 63:-0.30414701 64:-0.230415 65:-0.37788001 66:0.267281 67:0.082949303 68:0.055299498 69:-0.073732696 70:-0.0092165899 71:0.0368664 72:0.0092165899 73:-0.092165902 74:-0.032258101 75:-0.118881 76:-0.114219 77:-0.090909101 78:-0.114219 79:0.062937103 80:0.183544 81:-0.62917 82:-0.681054 83:-0.61676699 84:-0.62287498 85:-0.66785598 
189.9826990495046 1:-0.426523 2:-0.26164901 3:-0.222222 4:0.0179212 5:-0.200717 6:-0.197133 7:0.132616 8:-0.336918 9:-0.408602 10:-0.13978501 11:-0.53404999 12:-0.43010801 13:-0.387097 14:-0.37992799 15:-0.236559 16:-0.376344 17:-0.48028699 18:-0.24731199 19:-0.35125399 20:-0.23297501 21:-0.164875 22:-0.29390699 23:-0.25448 24:-0.27598599 25:-0.26523301 26:-0.26523301 27:-0.103943 28:-0.143369 29:-0.458781 30:-0.121864 31:-0.30107501 32:-0.26164901 33:-0.32616499 34:-0.387097 35:-0.31899601 36:-0.225806 37:-0.31899601 38:-0.36200699 39:-0.21505401 40:-0.18638 41:-0.336918 42:-0.19354799 43:-0.28315401 44:-0.15412199 45:-0.21505401 46:-0.22939099 47:-0.0092165899 48:0.0138249 49:-0.170507 50:-0.078341 51:-0.115207 52:-0.110599 53:0.19354799 54:-3.43345e-009 55:-0.101382 56:0.046082899 57:-0.0368664 58:-3.43345e-009 59:-0.30414701 60:0.129032 61:-0.24884801 62:-0.230415 63:-0.27649799 64:-0.0092165899 65:-0.30414701 66:-0.230415 67:-0.37788001 68:0.267281 69:0.082949303 70:0.055299498 71:-0.073732696 72:-0.0092165899 73:0.0368664 74:0.0092165899 75:-0.081585102 76:-0.020979 77:-0.118881 78:-0.114219 79:-0.090909101 80:0.20253199 81:-0.69744003 82:-0.66642302 83:-0.64585102 84:-0.63678497 85:-0.780276 
189.9826990495046 1:-0.22939099 2:-0.426523 3:-0.26164901 4:-0.222222 5:0.0179212 6:-0.200717 7:-0.197133 8:0.132616 9:-0.336918 10:-0.408602 11:-0.13978501 12:-0.53404999 13:-0.43010801 14:-0.387097 15:-0.37992799 16:-0.236559 17:-0.376344 18:-0.48028699 19:-0.24731199 20:-0.35125399 21:-0.23297501 22:-0.164875 23:-0.29390699 24:-0.25448 25:-0.27598599 26:-0.26523301 27:-0.26523301 28:-0.103943 29:-0.143369 30:-0.458781 31:-0.121864 32:-0.30107501 33:-0.26164901 34:-0.32616499 35:-0.387097 36:-0.31899601 37:-0.225806 38:-0.31899601 39:-0.36200699 40:-0.21505401 41:-0.18638 42:-0.336918 43:-0.19354799 44:-0.28315401 45:-0.15412199 46:-0.21505401 47:-0.0092165899 48:-0.0092165899 49:0.0138249 50:-0.170507 51:-0.078341 52:-0.115207 53:-0.110599 54:0.19354799 55:-3.43345e-009 56:-0.101382 57:0.046082899 58:-0.0368664 59:-3.43345e-009 60:-0.30414701 61:0.129032 62:-0.24884801 63:-0.230415 64:-0.27649799 65:-0.0092165899 66:-0.30414701 67:-0.230415 68:-0.37788001 69:0.267281 70:0.082949303 71:0.055299498 72:-0.073732696 73:-0.0092165899 74:0.0368664 75:0.020979 76:-0.081585102 77:-0.020979 78:-0.118881 79:-0.114219 80:0.23417699 81:-0.68192399 82:-0.673738 83:-0.654405 84:-0.67542499 85:-0.753802 
189.9826990495046 1:-0.172043 2:-0.22939099 3:-0.426523 4:-0.26164901 5:-0.222222 6:0.0179212 7:-0.200717 8:-0.197133 9:0.132616 10:-0.336918 11:-0.408602 12:-0.13978501 13:-0.53404999 14:-0.43010801 15:-0.387097 16:-0.37992799 17:-0.236559 18:-0.376344 19:-0.48028699 20:-0.24731199 21:-0.35125399 22:-0.23297501 23:-0.164875 24:-0.29390699 25:-0.25448 26:-0.27598599 27:-0.26523301 28:-0.26523301 29:-0.103943 30:-0.143369 31:-0.458781 32:-0.121864 33:-0.30107501 34:-0.26164901 35:-0.32616499 36:-0.387097 37:-0.31899601 38:-0.225806 39:-0.31899601 40:-0.36200699 41:-0.21505401 42:-0.18638 43:-0.336918 44:-0.19354799 45:-0.28315401 46:-0.15412199 47:0.0092165899 48:-0.0092165899 49:-0.0092165899 50:0.0138249 51:-0.170507 52:-0.078341 53:-0.115207 54:-0.110599 55:0.19354799 56:-3.43345e-009 57:-0.101382 58:0.046082899 59:-0.0368664 60:-3.43345e-009 61:-0.30414701 62:0.129032 63:-0.24884801 64:-0.230415 65:-0.27649799 66:-0.0092165899 67:-0.30414701 68:-0.230415 69:-0.37788001 70:0.267281 71:0.082949303 72:0.055299498 73:-0.073732696 74:-0.0092165899 75:0.048951 76:0.020979 77:-0.081585102 78:-0.020979 79:-0.118881 80:0.20253199 81:-0.64158201 82:-0.66788602 83:-0.585971 84:-0.62596601 85:-0.81134999 
189.9826990495046 1:-0.30465999 2:-0.26881701 3:-0.21146999 4:-0.172043 5:-0.22939099 6:-0.426523 7:-0.26164901 8:-0.222222 9:0.0179212 10:-0.200717 11:-0.197133 12:0.132616 13:-0.336918 14:-0.408602 15:-0.13978501 16:-0.53404999 17:-0.43010801 18:-0.387097 19:-0.37992799 20:-0.236559 21:-0.376344 22:-0.48028699 23:-0.24731199 24:-0.35125399 25:-0.23297501 26:-0.164875 27:-0.29390699 28:-0.25448 29:-0.27598599 30:-0.26523301 31:-0.26523301 32:-0.103943 33:-0.143369 34:-0.458781 35:-0.121864 36:-0.30107501 37:-0.26164901 38:-0.32616499 39:-0.387097 40:-0.31899601 41:-0.225806 42:-0.31899601 43:-0.36200699 44:-0.21505401 45:-0.18638 46:-0.336918 47:0.0368664 48:-0.078341 49:0.087557599 50:0.0092165899 51:-0.0092165899 52:-0.0092165899 53:0.0138249 54:-0.170507 55:-0.078341 56:-0.115207 57:-0.110599 58:0.19354799 59:-3.43345e-009 60:-0.101382 61:0.046082899 62:-0.0368664 63:-3.43345e-009 64:-0.30414701 65:0.129032 66:-0.24884801 67:-0.230415 68:-0.27649799 69:-0.0092165899 70:-0.30414701 71:-0.230415 72:-0.37788001 73:0.267281 74:0.082949303 75:0.067599103 76:-0.062937103 77:0.00233099 78:0.048951 79:0.020979 80:0.24683499 81:-0.63692802 82:-0.702999 83:-0.59965801 84:-0.61514699 85:-0.79520297 
64.38189660367303 1:-0.26164901 2:-0.30465999 3:-0.26881701 4:-0.21146999 5:-0.172043 6:-0.22939099 7:-0.426523 8:-0.26164901 9:-0.222222 10:0.0179212 11:-0.200717 12:-0.197133 13:0.132616 14:-0.336918 15:-0.408602 16:-0.13978501 17:-0.53404999 18:-0.43010801 19:-0.387097 20:-0.37992799 21:-0.236559 22:-0.376344 23:-0.48028699 24:-0.24731199 25:-0.35125399 26:-0.23297501 27:-0.164875 28:-0.29390699 29:-0.25448 30:-0.27598599 31:-0.26523301 32:-0.26523301 33:-0.103943 34:-0.143369 35:-0.458781 36:-0.121864 37:-0.30107501 38:-0.26164901 39:-0.32616499 40:-0.387097 41:-0.31899601 42:-0.225806 43:-0.31899601 44:-0.36200699 45:-0.21505401 46:-0.18638 47:-0.14746501 48:0.0368664 49:-0.078341 50:0.087557599 51:0.0092165899 52:-0.0092165899 53:-0.0092165899 54:0.0138249 55:-0.170507 56:-0.078341 57:-0.115207 58:-0.110599 59:0.19354799 60:-3.43345e-009 61:-0.101382 62:0.046082899 63:-0.0368664 64:-3.43345e-009 65:-0.30414701 66:0.129032 67:-0.24884801 68:-0.230415 69:-0.27649799 70:-0.0092165899 71:-0.30414701 72:-0.230415 73:-0.37788001 74:0.267281 75:0.095571101 76:0.067599103 77:-0.062937103 78:0.00233099 79:0.048951 80:0.386076 81:-0.63537598 82:-0.66642302 83:-0.57228398 84:-0.58423501 85:-0.89959598 
54.04630080348364 1:-0.143369 2:-0.26164901 3:-0.30465999 4:-0.26881701 5:-0.21146999 6:-0.172043 7:-0.22939099 8:-0.426523 9:-0.26164901 10:-0.222222 11:0.0179212 12:-0.200717 13:-0.197133 14:0.132616 15:-0.336918 16:-0.408602 17:-0.13978501 18:-0.53404999 19:-0.43010801 20:-0.387097 21:-0.37992799 22:-0.236559 23:-0.376344 24:-0.48028699 25:-0.24731199 26:-0.35125399 27:-0.23297501 28:-0.164875 29:-0.29390699 30:-0.25448 31:-0.27598599 32:-0.26523301 33:-0.26523301 34:-0.103943 35:-0.143369 36:-0.458781 37:-0.121864 38:-0.30107501 39:-0.26164901 40:-0.32616499 41:-0.387097 42:-0.31899601 43:-0.225806 44:-0.31899601 45:-0.36200699 46:-0.21505401 47:0.046082899 48:-0.14746501 49:0.0368664 50:-0.078341 51:0.087557599 52:0.0092165899 53:-0.0092165899 54:-0.0092165899 55:0.0138249 56:-0.170507 57:-0.078341 58:-0.115207 59:-0.110599 60:0.19354799 61:-3.43345e-009 62:-0.101382 63:0.046082899 64:-0.0368664 65:-3.43345e-009 66:-0.30414701 67:0.129032 68:-0.24884801 69:-0.230415 70:-0.27649799 71:-0.0092165899 72:-0.30414701 73:-0.230415 74:-0.37788001 75:0.282051 76:0.095571101 77:0.067599103 78:-0.062937103 79:0.00233099 80:0.42405099 81:-0.58262199 82:-0.65325499 83:-0.55859703 84:-0.61205602 85:-0.79290301 
189.9826990495046 1:-0.21146999 2:-0.172043 3:-0.143369 4:-0.26164901 5:-0.30465999 6:-0.26881701 7:-0.21146999 8:-0.172043 9:-0.22939099 10:-0.426523 11:-0.26164901 12:-0.222222 13:0.0179212 14:-0.200717 15:-0.197133 16:0.132616 17:-0.336918 18:-0.408602 19:-0.13978501 20:-0.53404999 21:-0.43010801 22:-0.387097 23:-0.37992799 24:-0.236559 25:-0.376344 26:-0.48028699 27:-0.24731199 28:-0.35125399 29:-0.23297501 30:-0.164875 31:-0.29390699 32:-0.25448 33:-0.27598599 34:-0.26523301 35:-0.26523301 36:-0.103943 37:-0.143369 38:-0.458781 39:-0.121864 40:-0.30107501 41:-0.26164901 42:-0.32616499 43:-0.387097 44:-0.31899601 45:-0.225806 46:-0.31899601 47:-0.17972399 48:0.0092165899 49:0.046082899 50:-0.14746501 51:0.0368664 52:-0.078341 53:0.087557599 54:0.0092165899 55:-0.0092165899 56:-0.0092165899 57:0.0138249 58:-0.170507 59:-0.078341 60:-0.115207 61:-0.110599 62:0.19354799 63:-3.43345e-009 64:-0.101382 65:0.046082899 66:-0.0368664 67:-3.43345e-009 68:-0.30414701 69:0.129032 70:-0.24884801 71:-0.230415 72:-0.27649799 73:-0.0092165899 74:-0.30414701 75:-0.22144499 76:-0.37062901 77:0.282051 78:0.095571101 79:0.067599103 80:0.27215201 81:-0.51900703 82:-0.55376798 83:-0.49358401 84:-0.56568801 85:-0.45414001 
11.70650786717568 1:-0.46236601 2:-0.114695 3:-0.21146999 4:-0.172043 5:-0.143369 6:-0.26164901 7:-0.30465999 8:-0.26881701 9:-0.21146999 10:-0.172043 11:-0.22939099 12:-0.426523 13:-0.26164901 14:-0.222222 15:0.0179212 16:-0.200717 17:-0.197133 18:0.132616 19:-0.336918 20:-0.408602 21:-0.13978501 22:-0.53404999 23:-0.43010801 24:-0.387097 25:-0.37992799 26:-0.236559 27:-0.376344 28:-0.48028699 29:-0.24731199 30:-0.35125399 31:-0.23297501 32:-0.164875 33:-0.29390699 34:-0.25448 35:-0.27598599 36:-0.26523301 37:-0.26523301 38:-0.103943 39:-0.143369 40:-0.458781 41:-0.121864 42:-0.30107501 43:-0.26164901 44:-0.32616499 45:-0.387097 46:-0.31899601 47:-0.0046083 48:-0.124424 49:-0.17972399 50:0.0092165899 51:0.046082899 52:-0.14746501 53:0.0368664 54:-0.078341 55:0.087557599 56:0.0092165899 57:-0.0092165899 58:-0.0092165899 59:0.0138249 60:-0.170507 61:-0.078341 62:-0.115207 63:-0.110599 64:0.19354799 65:-3.43345e-009 66:-0.101382 67:0.046082899 68:-0.0368664 69:-3.43345e-009 70:-0.30414701 71:0.129032 72:-0.24884801 73:-0.230415 74:-0.27649799 75:0.00233099 76:-0.29603699 77:-0.22144499 78:-0.37062901 79:0.282051 80:0.487342 81:-0.539177 82:-0.43233401 83:-0.442258 84:-0.44204 85:-0.28933501 
189.9826990495046 1:0.071684599 2:-0.46236601 3:-0.114695 4:-0.21146999 5:-0.172043 6:-0.143369 7:-0.26164901 8:-0.30465999 9:-0.26881701 10:-0.21146999 11:-0.172043 12:-0.22939099 13:-0.426523 14:-0.26164901 15:-0.222222 16:0.0179212 17:-0.200717 18:-0.197133 19:0.132616 20:-0.336918 21:-0.408602 22:-0.13978501 23:-0.53404999 24:-0.43010801 25:-0.387097 26:-0.37992799 27:-0.236559 28:-0.376344 29:-0.48028699 30:-0.24731199 31:-0.35125399 32:-0.23297501 33:-0.164875 34:-0.29390699 35:-0.25448 36:-0.27598599 37:-0.26523301 38:-0.26523301 39:-0.103943 40:-0.143369 41:-0.458781 42:-0.121864 43:-0.30107501 44:-0.26164901 45:-0.32616499 46:-0.387097 47:-0.124424 48:-0.0046083 49:-0.124424 50:-0.17972399 51:0.0092165899 52:0.046082899 53:-0.14746501 54:0.0368664 55:-0.078341 56:0.087557599 57:0.0092165899 58:-0.0092165899 59:-0.0092165899 60:0.0138249 61:-0.170507 62:-0.078341 63:-0.115207 64:-0.110599 65:0.19354799 66:-3.43345e-009 67:-0.101382 68:0.046082899 69:-0.0368664 70:-3.43345e-009 71:-0.30414701 72:0.129032 73:-0.24884801 74:-0.230415 75:-0.26806501 76:0.00233099 77:-0.29603699 78:-0.22144499 79:-0.37062901 80:0.74050599 81:-0.39332801 82:-0.39429399 83:-0.36526999 84:-0.42658401 85:-0.34918299 
189.9826990495046 1:0.53763402 2:0.071684599 3:-0.46236601 4:-0.114695 5:-0.21146999 6:-0.172043 7:-0.143369 8:-0.26164901 9:-0.30465999 10:-0.26881701 11:-0.21146999 12:-0.172043 13:-0.22939099 14:-0.426523 15:-0.26164901 16:-0.222222 17:0.0179212 18:-0.200717 19:-0.197133 20:0.132616 21:-0.336918 22:-0.408602 23:-0.13978501 24:-0.53404999 25:-0.43010801 26:-0.387097 27:-0.37992799 28:-0.236559 29:-0.376344 30:-0.48028699 31:-0.24731199 32:-0.35125399 33:-0.23297501 34:-0.164875 35:-0.29390699 36:-0.25448 37:-0.27598599 38:-0.26523301 39:-0.26523301 40:-0.103943 41:-0.143369 42:-0.458781 43:-0.121864 44:-0.30107501 45:-0.26164901 46:-0.32616499 47:-0.211982 48:-0.124424 49:-0.0046083 50:-0.124424 51:-0.17972399 52:0.0092165899 53:0.046082899 54:-0.14746501 55:0.0368664 56:-0.078341 57:0.087557599 58:0.0092165899 59:-0.0092165899 60:-0.0092165899 61:0.0138249 62:-0.170507 63:-0.078341 64:-0.115207 65:-0.110599 66:0.19354799 67:-3.43345e-009 68:-0.101382 69:0.046082899 70:-0.0368664 71:-3.43345e-009 72:-0.30414701 73:0.129032 74:-0.24884801 75:-0.22144499 76:-0.26806501 77:0.00233099 78:-0.29603699 79:-0.22144499 80:-0.14557 81:-0.045771599 82:-0.141185 83:-0.26604 84:-0.36012399 85:0.049380399 
1.977429794383787 1:-0.44086 2:0.093189999 3:0.53763402 4:0.071684599 5:-0.46236601 6:-0.114695 7:-0.21146999 8:-0.172043 9:-0.143369 10:-0.26164901 11:-0.30465999 12:-0.26881701 13:-0.21146999 14:-0.172043 15:-0.22939099 16:-0.426523 17:-0.26164901 18:-0.222222 19:0.0179212 20:-0.200717 21:-0.197133 22:0.132616 23:-0.336918 24:-0.408602 25:-0.13978501 26:-0.53404999 27:-0.43010801 28:-0.387097 29:-0.37992799 30:-0.236559 31:-0.376344 32:-0.48028699 33:-0.24731199 34:-0.35125399 35:-0.23297501 36:-0.164875 37:-0.29390699 38:-0.25448 39:-0.27598599 40:-0.26523301 41:-0.26523301 42:-0.103943 43:-0.143369 44:-0.458781 45:-0.121864 46:-0.30107501 47:-0.050691199 48:-0.133641 49:-0.211982 50:-0.124424 51:-0.0046083 52:-0.124424 53:-0.17972399 54:0.0092165899 55:0.046082899 56:-0.14746501 57:0.0368664 58:-0.078341 59:0.087557599 60:0.0092165899 61:-0.0092165899 62:-0.0092165899 63:0.0138249 64:-0.170507 65:-0.078341 66:-0.115207 67:-0.110599 68:0.19354799 69:-3.43345e-009 70:-0.101382 71:0.046082899 72:-0.0368664 73:-3.43345e-009 74:-0.30414701 75:0.14219099 76:-0.24009299 77:-0.22144499 78:-0.26806501 79:0.00233099 80:-0.044303801 81:0.0333592 82:0.0651059 83:0.115483 84:0.13446701 85:-0.57815403 
121.3265938180173 1:-0.082437299 2:-0.035842299 3:-0.44086 4:0.093189999 5:0.53763402 6:0.071684599 7:-0.46236601 8:-0.114695 9:-0.21146999 10:-0.172043 11:-0.143369 12:-0.26164901 13:-0.30465999 14:-0.26881701 15:-0.21146999 16:-0.172043 17:-0.22939099 18:-0.426523 19:-0.26164901 20:-0.222222 21:0.0179212 22:-0.200717 23:-0.197133 24:0.132616 25:-0.336918 26:-0.408602 27:-0.13978501 28:-0.53404999 29:-0.43010801 30:-0.387097 31:-0.37992799 32:-0.236559 33:-0.376344 34:-0.48028699 35:-0.24731199 36:-0.35125399 37:-0.23297501 38:-0.164875 39:-0.29390699 40:-0.25448 41:-0.27598599 42:-0.26523301 43:-0.26523301 44:-0.103943 45:-0.143369 46:-0.458781 47:0.129032 48:-0.101382 49:-0.050691199 50:-0.133641 51:-0.211982 52:-0.124424 53:-0.0046083 54:-0.124424 55:-0.17972399 56:0.0092165899 57:0.046082899 58:-0.14746501 59:0.0368664 60:-0.078341 61:0.087557599 62:0.0092165899 63:-0.0092165899 64:-0.0092165899 65:0.0138249 66:-0.170507 67:-0.078341 68:-0.115207 69:-0.110599 70:0.19354799 71:-3.43345e-009 72:-0.101382 73:0.046082899 74:-0.0368664 75:0.011655 76:-0.29603699 77:0.14219099 78:-0.24009299 79:-0.22144499 80:-0.0063291299 81:0.21179201 82:0.14411099 83:0.231822 84:0.119011 85:-0.37640801 
125.9890439736662 1:0.555556 2:-0.082437299 3:-0.035842299 4:-0.44086 5:0.093189999 6:0.53763402 7:0.071684599 8:-0.46236601 9:-0.114695 10:-0.21146999 11:-0.172043 12:-0.143369 13:-0.26164901 14:-0.30465999 15:-0.26881701 16:-0.21146999 17:-0.172043 18:-0.22939099 19:-0.426523 20:-0.26164901 21:-0.222222 22:0.0179212 23:-0.200717 24:-0.197133 25:0.132616 26:-0.336918 27:-0.408602 28:-0.13978501 29:-0.53404999 30:-0.43010801 31:-0.387097 32:-0.37992799 33:-0.236559 34:-0.376344 35:-0.48028699 36:-0.24731199 37:-0.35125399 38:-0.23297501 39:-0.164875 40:-0.29390699 41:-0.25448 42:-0.27598599 43:-0.26523301 44:-0.26523301 45:-0.103943 46:-0.143369 47:-0.30414701 48:0.129032 49:-0.101382 50:-0.050691199 51:-0.133641 52:-0.211982 53:-0.124424 54:-0.0046083 55:-0.124424 56:-0.17972399 57:0.0092165899 58:0.046082899 59:-0.14746501 60:0.0368664 61:-0.078341 62:0.087557599 63:0.0092165899 64:-0.0092165899 65:-0.0092165899 66:0.0138249 67:-0.170507 68:-0.078341 69:-0.115207 70:-0.110599 71:0.19354799 72:-3.43345e-009 73:-0.101382 74:0.046082899 75:-0.025641 76:0.011655 77:-0.29603699 78:0.14219099 79:-0.24009299 80:0.056961998 81:0.56710702 82:0.43087101 83:0.341317 84:0.231839 85:-0.017930901 
113.9269398850317 1:-0.87096798 2:-0.59498203 3:0.27240101 4:0.555556 5:-0.082437299 6:-0.035842299 7:-0.44086 8:0.093189999 9:0.53763402 10:0.071684599 11:-0.46236601 12:-0.114695 13:-0.21146999 14:-0.172043 15:-0.143369 16:-0.26164901 17:-0.30465999 18:-0.26881701 19:-0.21146999 20:-0.172043 21:-0.22939099 22:-0.426523 23:-0.26164901 24:-0.222222 25:0.0179212 26:-0.200717 27:-0.197133 28:0.132616 29:-0.336918 30:-0.408602 31:-0.13978501 32:-0.53404999 33:-0.43010801 34:-0.387097 35:-0.37992799 36:-0.236559 37:-0.376344 38:-0.48028699 39:-0.24731199 40:-0.35125399 41:-0.23297501 42:-0.164875 43:-0.29390699 44:-0.25448 45:-0.27598599 46:-0.26523301 47:-0.055299498 48:0.15207399 49:0.101382 50:-0.30414701 51:0.129032 52:-0.101382 53:-0.050691199 54:-0.133641 55:-0.211982 56:-0.124424 57:-0.0046083 58:-0.124424 59:-0.17972399 60:0.0092165899 61:0.046082899 62:-0.14746501 63:0.0368664 64:-0.078341 65:0.087557599 66:0.0092165899 67:-0.0092165899 68:-0.0092165899 69:0.0138249 70:-0.170507 71:-0.078341 72:-0.115207 73:-0.110599 74:0.19354799 75:0.011655 76:-0.090909101 77:0.058274999 78:-0.025641 79:0.011655 80:-0.044303801 81:0.39488 82:0.5406 83:0.54833198 84:0.69088101 85:-0.29416999 
51.78161060230888 1:-0.48745501 2:-0.28315401 3:-0.28673801 4:-0.32616499 5:-0.67383498 6:-0.129032 7:-0.87096798 8:-0.59498203 9:0.27240101 10:0.555556 11:-0.082437299 12:-0.035842299 13:-0.44086 14:0.093189999 15:0.53763402 16:0.071684599 17:-0.46236601 18:-0.114695 19:-0.21146999 20:-0.172043 21:-0.143369 22:-0.26164901 23:-0.30465999 24:-0.26881701 25:-0.21146999 26:-0.172043 27:-0.22939099 28:-0.426523 29:-0.26164901 30:-0.222222 31:0.0179212 32:-0.200717 33:-0.197133 34:0.132616 35:-0.336918 36:-0.408602 37:-0.13978501 38:-0.53404999 39:-0.43010801 40:-0.387097 41:-0.37992799 42:-0.236559 43:-0.376344 44:-0.48028699 45:-0.24731199 46:-0.35125399 47:-0.0138249 48:0.073732696 49:-0.092165902 50:-0.0414747 51:-0.069124401 52:-0.055299498 53:-0.055299498 54:0.15207399 55:0.101382 56:-0.30414701 57:0.129032 58:-0.101382 59:-0.050691199 60:-0.133641 61:-0.211982 62:-0.124424 63:-0.0046083 64:-0.124424 65:-0.17972399 66:0.0092165899 67:0.046082899 68:-0.14746501 69:0.0368664 70:-0.078341 71:0.087557599 72:0.0092165899 73:-0.0092165899 74:-0.0092165899 75:0.025641 76:-0.16083901 77:-0.067599103 78:-0.104895 79:-0.100233 80:0.63924098 81:0.137316 82:0.16020501 83:0.30367801 84:0.29520899 85:-0.39072499 
53.71247988032194 1:0.13620099 2:-0.17562699 3:-0.48745501 4:-0.28315401 5:-0.28673801 6:-0.32616499 7:-0.67383498 8:-0.129032 9:-0.87096798 10:-0.59498203 11:0.27240101 12:0.555556 13:-0.082437299 14:-0.035842299 15:-0.44086 16:0.093189999 17:0.53763402 18:0.071684599 19:-0.46236601 20:-0.114695 21:-0.21146999 22:-0.172043 23:-0.143369 24:-0.26164901 25:-0.30465999 26:-0.26881701 27:-0.21146999 28:-0.172043 29:-0.22939099 30:-0.426523 31:-0.26164901 32:-0.222222 33:0.0179212 34:-0.200717 35:-0.197133 36:0.132616 37:-0.336918 38:-0.408602 39:-0.13978501 40:-0.53404999 41:-0.43010801 42:-0.387097 43:-0.37992799 44:-0.236559 45:-0.376344 46:-0.48028699 47:-0.032258101 48:-0.16589899 49:-0.0138249 50:0.073732696 51:-0.092165902 52:-0.0414747 53:-0.069124401 54:-0.055299498 55:-0.055299498 56:0.15207399 57:0.101382 58:-0.30414701 59:0.129032 60:-0.101382 61:-0.050691199 62:-0.133641 63:-0.211982 64:-0.124424 65:-0.0046083 66:-0.124424 67:-0.17972399 68:0.0092165899 69:0.046082899 70:-0.14746501 71:0.0368664 72:-0.078341 73:0.087557599 74:0.0092165899 75:0.00233099 76:0.00233099 77:0.025641 78:-0.16083901 79:-0.067599103 80:0.21518999 81:0.349884 82:0.226042 83:0.396065 84:0.248841 85:-0.83270699 
189.9826990495046 1:-0.31182799 2:0.039426502 3:0.13620099 4:-0.17562699 5:-0.48745501 6:-0.28315401 7:-0.28673801 8:-0.32616499 9:-0.67383498 10:-0.129032 11:-0.87096798 12:-0.59498203 13:0.27240101 14:0.555556 15:-0.082437299 16:-0.035842299 17:-0.44086 18:0.093189999 19:0.53763402 20:0.071684599 21:-0.46236601 22:-0.114695 23:-0.21146999 24:-0.172043 25:-0.143369 26:-0.26164901 27:-0.30465999 28:-0.26881701 29:-0.21146999 30:-0.172043 31:-0.22939099 32:-0.426523 33:-0.26164901 34:-0.222222 35:0.0179212 36:-0.200717 37:-0.197133 38:0.132616 39:-0.336918 40:-0.408602 41:-0.13978501 42:-0.53404999 43:-0.43010801 44:-0.387097 45:-0.37992799 46:-0.236559 47:-0.198157 48:-0.331797 49:-0.032258101 50:-0.16589899 51:-0.0138249 52:0.073732696 53:-0.092165902 54:-0.0414747 55:-0.069124401 56:-0.055299498 57:-0.055299498 58:0.15207399 59:0.101382 60:-0.30414701 61:0.129032 62:-0.101382 63:-0.050691199 64:-0.133641 65:-0.211982 66:-0.124424 67:-0.0046083 68:-0.124424 69:-0.17972399 70:0.0092165899 71:0.046082899 72:-0.14746501 73:0.0368664 74:-0.078341 75:0.100233 76:0.020979 77:0.00233099 78:0.00233099 79:0.025641 80:0.13924 81:0.46159801 82:0.37088501 83:0.58083802 84:0.43431199 85:-0.75018799 
141.22737263978 1:-0.412186 2:-0.444444 3:0.19354799 4:-0.31182799 5:0.039426502 6:0.13620099 7:-0.17562699 8:-0.48745501 9:-0.28315401 10:-0.28673801 11:-0.32616499 12:-0.67383498 13:-0.129032 14:-0.87096798 15:-0.59498203 16:0.27240101 17:0.555556 18:-0.082437299 19:-0.035842299 20:-0.44086 21:0.093189999 22:0.53763402 23:0.071684599 24:-0.46236601 25:-0.114695 26:-0.21146999 27:-0.172043 28:-0.143369 29:-0.26164901 30:-0.30465999 31:-0.26881701 32:-0.21146999 33:-0.172043 34:-0.22939099 35:-0.426523 36:-0.26164901 37:-0.222222 38:0.0179212 39:-0.200717 40:-0.197133 41:0.132616 42:-0.336918 43:-0.408602 44:-0.13978501 45:-0.53404999 46:-0.43010801 47:-0.211982 48:-0.202765 49:-0.0184332 50:-0.198157 51:-0.331797 52:-0.032258101 53:-0.16589899 54:-0.0138249 55:0.073732696 56:-0.092165902 57:-0.0414747 58:-0.069124401 59:-0.055299498 60:-0.055299498 61:0.15207399 62:0.101382 63:-0.30414701 64:0.129032 65:-0.101382 66:-0.050691199 67:-0.133641 68:-0.211982 69:-0.124424 70:-0.0046083 71:-0.124424 72:-0.17972399 73:0.0092165899 74:0.046082899 75:-0.137529 76:0.048951 77:-0.067599103 78:0.100233 79:0.020979 80:0.36075899 81:0.51900703 82:0.51280099 83:0.72455102 84:0.60587299 85:-0.69240499 
126.7501749055203 1:-0.0107527 2:-0.412186 3:-0.444444 4:0.19354799 5:-0.31182799 6:0.039426502 7:0.13620099 8:-0.17562699 9:-0.48745501 10:-0.28315401 11:-0.28673801 12:-0.32616499 13:-0.67383498 14:-0.129032 15:-0.87096798 16:-0.59498203 17:0.27240101 18:0.555556 19:-0.082437299 20:-0.035842299 21:-0.44086 22:0.093189999 23:0.53763402 24:0.071684599 25:-0.46236601 26:-0.114695 27:-0.21146999 28:-0.172043 29:-0.143369 30:-0.26164901 31:-0.30465999 32:-0.26881701 33:-0.21146999 34:-0.172043 35:-0.22939099 36:-0.426523 37:-0.26164901 38:-0.222222 39:0.0179212 40:-0.200717 41:-0.197133 42:0.132616 43:-0.336918 44:-0.408602 45:-0.13978501 46:-0.53404999 47:-0.267281 48:-0.211982 49:-0.202765 50:-0.0184332 51:-0.198157 52:-0.331797 53:-0.032258101 54:-0.16589899 55:-0.0138249 56:0.073732696 57:-0.092165902 58:-0.0414747 59:-0.069124401 60:-0.055299498 61:-0.055299498 62:0.15207399 63:0.101382 64:-0.30414701 65:0.129032 66:-0.101382 67:-0.050691199 68:-0.133641 69:-0.211982 70:-0.124424 71:-0.0046083 72:-0.124424 73:-0.17972399 74:0.0092165899 75:0.058274999 76:-0.137529 77:0.048951 78:-0.067599103 79:0.100233 80:0.386076 81:0.62917 82:0.489393 83:0.62361002 84:0.53477597 85:-0.88908201 
24.32878894676835 1:-0.444444 2:-0.31182799 3:-0.129032 4:-0.0107527 5:-0.412186 6:-0.444444 7:0.19354799 8:-0.31182799 9:0.039426502 10:0.13620099 11:-0.17562699 12:-0.48745501 13:-0.28315401 14:-0.28673801 15:-0.32616499 16:-0.67383498 17:-0.129032 18:-0.87096798 19:-0.59498203 20:0.27240101 21:0.555556 22:-0.082437299 23:-0.035842299 24:-0.44086 25:0.093189999 26:0.53763402 27:0.071684599 28:-0.46236601 29:-0.114695 30:-0.21146999 31:-0.172043 32:-0.143369 33:-0.26164901 34:-0.30465999 35:-0.26881701 36:-0.21146999 37:-0.172043 38:-0.22939099 39:-0.426523 40:-0.26164901 41:-0.222222 42:0.0179212 43:-0.200717 44:-0.197133 45:0.132616 46:-0.336918 47:-0.239631 48:0.105991 49:-0.400922 50:-0.267281 51:-0.211982 52:-0.202765 53:-0.0184332 54:-0.198157 55:-0.331797 56:-0.032258101 57:-0.16589899 58:-0.0138249 59:0.073732696 60:-0.092165902 61:-0.0414747 62:-0.069124401 63:-0.055299498 64:-0.055299498 65:0.15207399 66:0.101382 67:-0.30414701 68:0.129032 69:-0.101382 70:-0.050691199 71:-0.133641 72:-0.211982 73:-0.124424 74:-0.0046083 75:-0.114219 76:-0.17016301 77:0.020979 78:0.058274999 79:-0.137529 80:0.42405099 81:0.59038001 82:0.50402302 83:0.698888 84:0.65996999 85:-0.74441397 
188.5878974379588 1:-0.31899601 2:-0.73118299 3:-0.53046602 4:-0.035842299 5:-0.444444 6:-0.31182799 7:-0.129032 8:-0.0107527 9:-0.412186 10:-0.444444 11:0.19354799 12:-0.31182799 13:0.039426502 14:0.13620099 15:-0.17562699 16:-0.48745501 17:-0.28315401 18:-0.28673801 19:-0.32616499 20:-0.67383498 21:-0.129032 22:-0.87096798 23:-0.59498203 24:0.27240101 25:0.555556 26:-0.082437299 27:-0.035842299 28:-0.44086 29:0.093189999 30:0.53763402 31:0.071684599 32:-0.46236601 33:-0.114695 34:-0.21146999 35:-0.172043 36:-0.143369 37:-0.26164901 38:-0.30465999 39:-0.26881701 40:-0.21146999 41:-0.172043 42:-0.22939099 43:-0.426523 44:-0.26164901 45:-0.222222 46:0.0179212 47:0.027649799 48:0.032258101 49:0.45622101 50:-0.14746501 51:-0.239631 52:0.105991 53:-0.400922 54:-0.267281 55:-0.211982 56:-0.202765 57:-0.0184332 58:-0.198157 59:-0.331797 60:-0.032258101 61:-0.16589899 62:-0.0138249 63:0.073732696 64:-0.092165902 65:-0.0414747 66:-0.069124401 67:-0.055299498 68:-0.055299498 69:0.15207399 70:0.101382 71:-0.30414701 72:0.129032 73:-0.101382 74:-0.050691199 75:-0.123543 76:-0.202797 77:-0.114219 78:0.0069929902 79:-0.114219 80:0.126582 81:0.349884 82:0.28310099 83:0.49016199 84:0.400309 85:-0.82918698 
181.8605976216429 1:-0.70609301 2:0.125448 3:-0.31899601 4:-0.73118299 5:-0.53046602 6:-0.035842299 7:-0.444444 8:-0.31182799 9:-0.129032 10:-0.0107527 11:-0.412186 12:-0.444444 13:0.19354799 14:-0.31182799 15:0.039426502 16:0.13620099 17:-0.17562699 18:-0.48745501 19:-0.28315401 20:-0.28673801 21:-0.32616499 22:-0.67383498 23:-0.129032 24:-0.87096798 25:-0.59498203 26:0.27240101 27:0.555556 28:-0.082437299 29:-0.035842299 30:-0.44086 31:0.093189999 32:0.53763402 33:0.071684599 34:-0.46236601 35:-0.114695 36:-0.21146999 37:-0.172043 38:-0.143369 39:-0.26164901 40:-0.30465999 41:-0.26881701 42:-0.21146999 43:-0.172043 44:-0.22939099 45:-0.426523 46:-0.26164901 47:-3.43345e-009 48:0.30875599 49:0.027649799 50:0.032258101 51:0.45622101 52:-0.14746501 53:-0.239631 54:0.105991 55:-0.400922 56:-0.267281 57:-0.211982 58:-0.202765 59:-0.0184332 60:-0.198157 61:-0.331797 62:-0.032258101 63:-0.16589899 64:-0.0138249 65:0.073732696 66:-0.092165902 67:-0.0414747 68:-0.069124401 69:-0.055299498 70:-0.055299498 71:0.15207399 72:0.101382 73:-0.30414701 74:0.129032 75:-0.090909101 76:-0.039627101 77:-0.123543 78:-0.202797 79:-0.114219 80:0.367089 81:0.32816201 82:0.47476199 83:0.44396901 84:0.53477597 85:-0.227047 
117.6563008589661 1:0.021505401 2:-0.70609301 3:0.125448 4:-0.31899601 5:-0.73118299 6:-0.53046602 7:-0.035842299 8:-0.444444 9:-0.31182799 10:-0.129032 11:-0.0107527 12:-0.412186 13:-0.444444 14:0.19354799 15:-0.31182799 16:0.039426502 17:0.13620099 18:-0.17562699 19:-0.48745501 20:-0.28315401 21:-0.28673801 22:-0.32616499 23:-0.67383498 24:-0.129032 25:-0.87096798 26:-0.59498203 27:0.27240101 28:0.555556 29:-0.082437299 30:-0.035842299 31:-0.44086 32:0.093189999 33:0.53763402 34:0.071684599 35:-0.46236601 36:-0.114695 37:-0.21146999 38:-0.172043 39:-0.143369 40:-0.26164901 41:-0.30465999 42:-0.26881701 43:-0.21146999 44:-0.172043 45:-0.22939099 46:-0.426523 47:-0.050691199 48:-3.43345e-009 49:0.30875599 50:0.027649799 51:0.032258101 52:0.45622101 53:-0.14746501 54:-0.239631 55:0.105991 56:-0.400922 57:-0.267281 58:-0.211982 59:-0.202765 60:-0.0184332 61:-0.198157 62:-0.331797 63:-0.032258101 64:-0.16589899 65:-0.0138249 66:0.073732696 67:-0.092165902 68:-0.0414747 69:-0.069124401 70:-0.055299498 71:-0.055299498 72:0.15207399 73:0.101382 74:-0.30414701 75:0.14219099 76:-0.090909101 77:-0.039627101 78:-0.123543 79:-0.202797 80:0.20253199 81:0.45228899 82:0.350402 83:0.488451 84:0.36939701 85:-0.343081 
24.09891072027807 1:-0.336918 2:-0.60931897 3:-0.45519701 4:1 5:0.021505401 6:-0.70609301 7:0.125448 8:-0.31899601 9:-0.73118299 10:-0.53046602 11:-0.035842299 12:-0.444444 13:-0.31182799 14:-0.129032 15:-0.0107527 16:-0.412186 17:-0.444444 18:0.19354799 19:-0.31182799 20:0.039426502 21:0.13620099 22:-0.17562699 23:-0.48745501 24:-0.28315401 25:-0.28673801 26:-0.32616499 27:-0.67383498 28:-0.129032 29:-0.87096798 30:-0.59498203 31:0.27240101 32:0.555556 33:-0.082437299 34:-0.035842299 35:-0.44086 36:0.093189999 37:0.53763402 38:0.071684599 39:-0.46236601 40:-0.114695 41:-0.21146999 42:-0.172043 43:-0.143369 44:-0.26164901 45:-0.30465999 46:-0.26881701 47:0.0138249 48:0.064516097 49:-0.0092165899 50:-0.26267299 51:-0.050691199 52:-3.43345e-009 53:0.30875599 54:0.027649799 55:0.032258101 56:0.45622101 57:-0.14746501 58:-0.239631 59:0.105991 60:-0.400922 61:-0.267281 62:-0.211982 63:-0.202765 64:-0.0184332 65:-0.198157 66:-0.331797 67:-0.032258101 68:-0.16589899 69:-0.0138249 70:0.073732696 71:-0.092165902 72:-0.0414747 73:-0.069124401 74:-0.055299498 75:-0.044289101 76:0.165501 77:0.114219 78:-0.29603699 79:0.14219099 80:0.23417699 81:0.73778099 82:0.64301401 83:0.88023901 84:0.78516197 85:-0.2339 
47.12372131132025 1:-0.23297501 2:-0.390681 3:-0.817204 4:-0.85663098 5:-0.426523 6:-0.71326202 7:0.164875 8:-0.336918 9:-0.60931897 10:-0.45519701 11:1 12:0.021505401 13:-0.70609301 14:0.125448 15:-0.31899601 16:-0.73118299 17:-0.53046602 18:-0.035842299 19:-0.444444 20:-0.31182799 21:-0.129032 22:-0.0107527 23:-0.412186 24:-0.444444 25:0.19354799 26:-0.31182799 27:0.039426502 28:0.13620099 29:-0.17562699 30:-0.48745501 31:-0.28315401 32:-0.28673801 33:-0.32616499 34:-0.67383498 35:-0.129032 36:-0.87096798 37:-0.59498203 38:0.27240101 39:0.555556 40:-0.082437299 41:-0.035842299 42:-0.44086 43:0.093189999 44:0.53763402 45:0.071684599 46:-0.46236601 47:0.13824899 48:0.0138249 49:0.064516097 50:0.101382 51:-0.050691199 52:-0.105991 53:-0.059907801 54:0.0138249 55:0.064516097 56:-0.0092165899 57:-0.26267299 58:-0.050691199 59:-3.43345e-009 60:0.30875599 61:0.027649799 62:0.032258101 63:0.45622101 64:-0.14746501 65:-0.239631 66:0.105991 67:-0.400922 68:-0.267281 69:-0.211982 70:-0.202765 71:-0.0184332 72:-0.198157 73:-0.331797 74:-0.032258101 75:-0.156177 76:-0.0023310101 77:0.086247101 78:-0.081585102 79:-0.030303 80:0.27848101 81:0.124903 82:0.087051697 83:0.24721999 84:0.15146901 85:-0.68982399 
42.88956079709949 1:-0.15412199 2:-0.23297501 3:-0.390681 4:-0.817204 5:-0.85663098 6:-0.426523 7:-0.71326202 8:0.164875 9:-0.336918 10:-0.60931897 11:-0.45519701 12:1 13:0.021505401 14:-0.70609301 15:0.125448 16:-0.31899601 17:-0.73118299 18:-0.53046602 19:-0.035842299 20:-0.444444 21:-0.31182799 22:-0.129032 23:-0.0107527 24:-0.412186 25:-0.444444 26:0.19354799 27:-0.31182799 28:0.039426502 29:0.13620099 30:-0.17562699 31:-0.48745501 32:-0.28315401 33:-0.28673801 34:-0.32616499 35:-0.67383498 36:-0.129032 37:-0.87096798 38:-0.59498203 39:0.27240101 40:0.555556 41:-0.082437299 42:-0.035842299 43:-0.44086 44:0.093189999 45:0.53763402 46:0.071684599 47:-0.30875599 48:0.13824899 49:0.0138249 50:0.064516097 51:0.101382 52:-0.050691199 53:-0.105991 54:-0.059907801 55:0.0138249 56:0.064516097 57:-0.0092165899 58:-0.26267299 59:-0.050691199 60:-3.43345e-009 61:0.30875599 62:0.027649799 63:0.032258101 64:0.45622101 65:-0.14746501 66:-0.239631 67:0.105991 68:-0.400922 69:-0.267281 70:-0.211982 71:-0.202765 72:-0.0184332 73:-0.198157 74:-0.331797 75:-0.020979 76:-0.156177 77:-0.0023310101 78:0.086247101 79:-0.081585102 80:0.31645599 81:0.173003 82:0.145574 83:0.3071 84:0.219475 85:-0.66766798 
2.789524601171005 1:-0.032258101 2:-0.376344 3:-0.26881701 4:-0.164875 5:-0.15412199 6:-0.23297501 7:-0.390681 8:-0.817204 9:-0.85663098 10:-0.426523 11:-0.71326202 12:0.164875 13:-0.336918 14:-0.60931897 15:-0.45519701 16:1 17:0.021505401 18:-0.70609301 19:0.125448 20:-0.31899601 21:-0.73118299 22:-0.53046602 23:-0.035842299 24:-0.444444 25:-0.31182799 26:-0.129032 27:-0.0107527 28:-0.412186 29:-0.444444 30:0.19354799 31:-0.31182799 32:0.039426502 33:0.13620099 34:-0.17562699 35:-0.48745501 36:-0.28315401 37:-0.28673801 38:-0.32616499 39:-0.67383498 40:-0.129032 41:-0.87096798 42:-0.59498203 43:0.27240101 44:0.555556 45:-0.082437299 46:-0.035842299 47:-0.281106 48:0.40553001 49:0.97695899 50:0.37788001 51:-0.30875599 52:0.13824899 53:0.0138249 54:0.064516097 55:0.101382 56:-0.050691199 57:-0.105991 58:-0.059907801 59:0.0138249 60:0.064516097 61:-0.0092165899 62:-0.26267299 63:-0.050691199 64:-3.43345e-009 65:0.30875599 66:0.027649799 67:0.032258101 68:0.45622101 69:-0.14746501 70:-0.239631 71:0.105991 72:-0.400922 73:-0.267281 74:-0.211982 75:-0.193473 76:-0.00699302 77:-0.188811 78:-0.324009 79:-0.020979 80:0.14557 81:0.26764899 82:0.188003 83:0.37040201 84:0.22874799 85:-0.666354 
15.60547770146224 1:-0.30465999 2:-0.58422899 3:-0.46953401 4:-0.54480302 5:-0.200717 6:-0.032258101 7:-0.376344 8:-0.26881701 9:-0.164875 10:-0.15412199 11:-0.23297501 12:-0.390681 13:-0.817204 14:-0.85663098 15:-0.426523 16:-0.71326202 17:0.164875 18:-0.336918 19:-0.60931897 20:-0.45519701 21:1 22:0.021505401 23:-0.70609301 24:0.125448 25:-0.31899601 26:-0.73118299 27:-0.53046602 28:-0.035842299 29:-0.444444 30:-0.31182799 31:-0.129032 32:-0.0107527 33:-0.412186 34:-0.444444 35:0.19354799 36:-0.31182799 37:0.039426502 38:0.13620099 39:-0.17562699 40:-0.48745501 41:-0.28315401 42:-0.28673801 43:-0.32616499 44:-0.67383498 45:-0.129032 46:-0.87096798 47:-0.47926301 48:0.63594502 49:1 50:0.17972399 51:0.239631 52:-0.281106 53:0.40553001 54:0.97695899 55:0.37788001 56:-0.30875599 57:0.13824899 58:0.0138249 59:0.064516097 60:0.101382 61:-0.050691199 62:-0.105991 63:-0.059907801 64:0.0138249 65:0.064516097 66:-0.0092165899 67:-0.26267299 68:-0.050691199 69:-3.43345e-009 70:0.30875599 71:0.027649799 72:0.032258101 73:0.45622101 74:-0.14746501 75:-0.23076899 76:0.118881 77:-0.39393899 78:-0.25874099 79:-0.202797 80:0.094936699 81:-0.0690457 82:-0.111924 83:0.0128314 84:0.0061825202 85:-0.769104 
22.28730168567424 1:-0.426523 2:0.035842299 3:-0.30465999 4:-0.58422899 5:-0.46953401 6:-0.54480302 7:-0.200717 8:-0.032258101 9:-0.376344 10:-0.26881701 11:-0.164875 12:-0.15412199 13:-0.23297501 14:-0.390681 15:-0.817204 16:-0.85663098 17:-0.426523 18:-0.71326202 19:0.164875 20:-0.336918 21:-0.60931897 22:-0.45519701 23:1 24:0.021505401 25:-0.70609301 26:0.125448 27:-0.31899601 28:-0.73118299 29:-0.53046602 30:-0.035842299 31:-0.444444 32:-0.31182799 33:-0.129032 34:-0.0107527 35:-0.412186 36:-0.444444 37:0.19354799 38:-0.31182799 39:0.039426502 40:0.13620099 41:-0.17562699 42:-0.48745501 43:-0.28315401 44:-0.28673801 45:-0.32616499 46:-0.67383498 47:0.119816 48:-0.83410102 49:-0.47926301 50:0.63594502 51:1 52:0.17972399 53:0.239631 54:-0.281106 55:0.40553001 56:0.97695899 57:0.37788001 58:-0.30875599 59:0.13824899 60:0.0138249 61:0.064516097 62:0.101382 63:-0.050691199 64:-0.105991 65:-0.059907801 66:0.0138249 67:0.064516097 68:-0.0092165899 69:-0.26267299 70:-0.050691199 71:-3.43345e-009 72:0.30875599 73:0.027649799 74:0.032258101 75:0.47319299 76:-0.137529 77:-0.23076899 78:0.118881 79:-0.39393899 80:0.0063290899 81:-0.0085335001 82:-0.0080469996 83:0.0932419 84:0.0571872 85:-0.74248999 
